tree
version=v4
num_class=1
num_tree_per_iteration=1
label_index=0
max_feature_idx=13
objective=binary sigmoid:1
feature_names=is_abuser time_taken typing_speed mouse_distance state country browser_family browser_version os_family os_version device_family is_mobile is_tablet is_pc
feature_infos=none [0.45500000000000002:774.22000000000003] [0.078874928026628099:13462.282398452611] [43:4313.3900115409269] [0:4] none [0:3] [0:4] [0:4] [0:3] [0:3] [0:1] none [0:1]
tree_sizes=1047 1158 1472 1373 1373 1474 1484 1370 1586 1382 1591 1592 1992 1884 1784 2096 1798 1799 2022 1910 2107 2210 2424 2115 2314 2002 1808 2115 1815 2016 2117 2132 2434 2545 1798 2033 2115 2027 2759 2227 2136 2238 2355 2246 2044 2348 2259 2455 2352 2044 2237 2054 2459 2705 2246 2054 2474 2606 2681 2721 2471 2794 2471 2913 2615 3020 3345 3350 2833 2806 2842 2928 3369 3152 3172 2732 3493 2969 3499 3506 3499 2955 3168 3503 3504 3072 3076 2846 2862 3403 2740 3081 3183 3190 2972 2873 2980 2977 2753 2870

Tree=0
num_leaves=9
num_cat=0
split_feature=3 1 2 4 1 1 1 1
split_gain=435.309 29.7457 12.4834 1.25995 2.34352 0.202752 5.68434e-14 2.84217e-14
threshold=60.270069377823738 6.2515000000000009 2.6775568436410047 1.0000000180025095e-35 8.9725000000000019 6.3710000000000013 5.0565000000000007 3.5250000000000004
decision_type=2 2 8 2 2 2 2 2
left_child=1 -1 -2 4 -3 6 7 -4
right_child=2 3 5 -5 -6 -7 -8 -9
leaf_value=0.71731576890563475 0.68467394581601115 0.98933096131916409 0.51330437459548794 0.98933096131916409 0.89412564397442884 0.53710570393167156 0.51330437459548772 0.51330437459548772
leaf_weight=4.4115181714296332 5.2518073469400397 6.7223134040832502 13.234554514288911 67.22313404083252 4.2014458775520325 4.2014458775520316 5.0417350530624381 5.8820242285728446
leaf_count=21 25 32 63 320 20 20 24 28
internal_value=0.846437 0.969951 0.543056 0.984212 0.952714 0.51683 0.513304 0.513304
internal_weight=0 82.5584 33.6116 78.1469 10.9238 28.3598 24.1583 19.1166
internal_count=553 393 160 372 52 135 115 91
is_linear=0
shrinkage=1


Tree=1
num_leaves=10
num_cat=0
split_feature=3 6 1 3 1 1 4 1 1
split_gain=332.192 74.5676 4.77708 0.0877773 0.0261644 0.0109967 0.00287359 0.00154765 1.42109e-14
threshold=61.915226626755931 1.0000000180025095e-35 8.2250000000000032 852.43320787944765 6.1430000000000007 6.6875000000000009 1.0000000180025095e-35 8.6015000000000015 10.137500000000001
decision_type=2 2 2 2 2 2 2 2 2
left_child=1 5 3 4 -2 -1 7 -7 -8
right_child=2 -3 -4 -5 -6 6 8 -9 -10
leaf_value=0.14272912020405021 -0.26708030104446401 -0.30868711533517534 -0.1654695105234314 -0.25684425720582499 -0.27553624074306921 0.13777696090550234 0.13718254028110041 0.140281838264911 0.13718254028110041
leaf_weight=4.1570674479007712 17.567210644483573 3.9374215006828299 5.650823086500167 8.4094965457916242 4.6219378709793082 4.9647495448589307 55.32219409942627 4.9020427167415619 5.9273779392242423
leaf_count=20 75 18 25 36 20 25 280 24 30
internal_value=0 0.115539 -0.249944 -0.265544 -0.268842 0.13773 0.137438 0.139021 0.137183
internal_weight=0 79.2109 36.2495 30.5986 22.1891 75.2734 71.1164 9.86679 61.2496
internal_count=553 397 156 131 95 379 359 49 310
is_linear=0
shrinkage=0.1


Tree=2
num_leaves=13
num_cat=0
split_feature=3 6 2 2 1 1 3 4 1 3 1 1
split_gain=265.179 54.8776 6.24404 0.160497 0.0130401 0.00755932 0.0011923 0.000880092 0.00139227 8.09796e-05 7.15619e-07 1.42109e-14
threshold=60.270069377823738 1.0000000180025095e-35 2.6775568436410047 8.2571577455597396 6.2185000000000015 6.6875000000000009 852.43320787944765 1.0000000180025095e-35 8.8240000000000016 437.90702836378676 4.6210000000000013 9.2075000000000014
decision_type=2 2 8 10 2 2 2 2 2 2 2 2
left_child=1 5 -2 4 6 -1 9 8 -7 -4 -11 -9
right_child=2 -3 3 -5 -6 7 -8 11 -10 10 -12 -13
leaf_value=0.1370853451187263 -0.11414477103307696 -0.2575186563846098 -0.22739510859014619 -0.2100948786804453 -0.23383564923264588 0.13238788414695113 -0.22923471364661852 0.13241614732063228 0.13492205660240394 -0.22791861149190362 -0.22786470411841087 0.13241614732063228
leaf_weight=3.9081945419311515 5.8369977325201026 3.7971538901329032 4.9272813796997132 5.1621038466691962 5.1375756114721289 4.9894164651632291 8.1158188730478269 38.823868185281754 3.8337827324867249 4.9249762296676618 4.925227090716362 18.487556278705597
leaf_count=20 25 16 20 21 21 27 33 210 20 20 20 100
internal_value=0 0.112739 -0.209526 -0.226299 -0.229283 0.132812 -0.228261 0.132559 0.133489 -0.227726 -0.227892 0.132416
internal_weight=0 73.84 39.03 33.193 28.0309 70.0428 22.8933 66.1346 8.8232 14.7775 9.8502 57.3114
internal_count=553 393 160 135 114 377 93 357 47 60 40 310
is_linear=0
shrinkage=0.1


Tree=3
num_leaves=12
num_cat=0
split_feature=3 6 1 9 2 1 4 2 2 7 1
split_gain=218.083 50.5467 3.07732 0.0736064 0.0243535 0.00472992 0.00275711 0.00110915 0.000740152 1.23183e-05 1.42109e-14
threshold=61.915226626755931 1.0000000180025095e-35 8.2250000000000032 1.5000000000000002 3.8087823501929781 6.6875000000000009 1.0000000180025095e-35 2.1595403771414605 7.7390059183195685 2.5000000000000004 10.278000000000002
decision_type=2 2 2 2 8 2 2 8 10 2 2
left_child=1 5 3 4 -2 -1 7 -7 9 -6 -8
right_child=2 -3 -4 -5 8 6 10 -9 -10 -11 -12
leaf_value=0.1323657456302966 -0.21036439426781661 -0.21914434392369608 -0.12331688310502949 -0.19417623601690934 -0.20206310675234859 0.13124409866057554 0.12839578670608306 0.12893651074216292 -0.20337823441738362 -0.20185431946564472 0.12839578670608306
leaf_weight=3.6557749062776557 4.9719332456588772 4.4564661979675284 6.0699845403432837 10.992244541645048 4.9994629770517367 5.1920496076345417 49.60720682144165 3.4783598780632028 5.2485014349222174 6.4994336813688278 3.7894394099712363
leaf_count=20 20 18 25 44 20 29 288 20 21 26 22
internal_value=0 0.106771 -0.18871 -0.200844 -0.204219 0.12887 0.128664 0.130318 -0.202394 -0.201945 0.128396
internal_weight=0 70.1793 38.7816 32.7116 21.7193 65.7228 62.0671 8.67041 16.7474 11.4989 53.3966
internal_count=553 397 156 131 87 379 359 49 67 46 310
is_linear=0
shrinkage=0.1


Tree=4
num_leaves=12
num_cat=0
split_feature=3 6 2 2 1 1 4 2 9 3 1
split_gain=182.208 43.1119 3.01401 0.132391 0.0101142 0.00323289 0.0019162 0.000775043 0.000715667 8.81734e-06 2.84217e-14
threshold=61.915226626755931 1.0000000180025095e-35 2.6775568436410047 8.2571577455597396 6.2185000000000015 6.6875000000000009 1.0000000180025095e-35 2.1595403771414605 1.5000000000000002 568.77956553397792 9.8780000000000019
decision_type=2 2 8 10 2 2 2 10 2 2 2
left_child=1 5 -2 4 8 -1 7 -7 9 -4 -8
right_child=2 -3 3 -5 -6 6 10 -9 -10 -11 -12
leaf_value=0.12837768818802325 -0.1029373913264813 -0.19580061795956349 -0.18317289180010932 -0.16728217379646632 -0.18861087359488432 0.12743844270445825 0.12497423299116486 0.12543759013245934 -0.1843760373200995 -0.1833428831368108 0.12497423299116486
leaf_weight=3.4052862375974646 5.6634182780981055 4.4863339364528647 7.9324613213539159 5.2167606502771369 5.2191977500915518 4.8309509605169279 41.254463911056519 3.2305771708488464 9.6799377948045731 4.9587039798498154 8.3148531913757306
leaf_count=20 23 18 32 21 21 29 258 20 39 20 52
internal_value=0 0.103392 -0.170335 -0.1819 -0.184644 0.125384 0.125207 0.126637 -0.183726 -0.183238 0.124974
internal_weight=0 65.5225 38.6705 33.0071 27.7903 61.0361 57.6308 8.06153 22.5711 12.8912 49.5693
internal_count=553 397 156 133 112 379 359 49 91 52 310
is_linear=0
shrinkage=0.1


Tree=5
num_leaves=13
num_cat=0
split_feature=3 6 2 3 1 1 2 4 4 1 2 2
split_gain=154.278 33.8184 4.25976 0.122427 0.00296206 0.0024295 0.000711505 0.000342677 0.0002426 0.000458447 4.3282e-06 1.42109e-14
threshold=60.270069377823738 1.0000000180025095e-35 2.6775568436410047 407.74011939899668 6.1155000000000008 6.6875000000000009 7.0880418032938453 2.5000000000000004 1.0000000180025095e-35 8.8240000000000016 5.846545624419619 1.7783053077195532
decision_type=2 2 8 2 2 2 10 2 2 2 8 10
left_child=1 5 -2 -4 6 -1 7 10 9 -7 -5 -10
right_child=2 -3 3 4 -6 8 -8 -9 11 -11 -12 -13
leaf_value=0.12497833034194446 -0.07675094328241433 -0.18056709881534153 -0.15515248763804959 -0.1693609177369628 -0.17276470331138707 0.12196112955082306 -0.17115819464979476 -0.17037536252353877 0.12204025440497163 0.12358466400596529 -0.169494692190515 0.12204025440497163
leaf_weight=3.160684496164321 6.1150676459074012 3.9465020895004264 6.3022720366716376 4.8363262563943907 5.3496516197919837 3.9863338917493811 5.1006155163049689 6.3034806847572318 7.547107905149459 3.085482120513916 4.8380161374807367 38.327469557523727
leaf_count=20 25 16 26 20 22 27 21 26 51 20 20 259
internal_value=0 0.102383 -0.153363 -0.167677 -0.170663 0.122285 -0.17013 -0.169802 0.122124 0.122669 -0.169428 0.12204
internal_weight=0 60.0536 38.8454 32.7304 26.4281 56.1071 21.0784 15.9778 52.9464 7.07182 9.67434 45.8746
internal_count=553 393 160 135 109 377 87 66 357 47 40 310
is_linear=0
shrinkage=0.1


Tree=6
num_leaves=13
num_cat=0
split_feature=3 13 1 2 3 1 2 10 4 1 4 1
split_gain=132.259 32.4556 2.68092 0.00259802 0.00230244 0.00171416 0.000569145 0.000216999 0.000165166 0.000256116 9.9242e-06 7.10543e-15
threshold=61.915226626755931 1.0000000180025095e-35 7.0720000000000001 3.925743651960365 58.335175096378471 6.7255000000000011 7.7390059183195685 1.5000000000000002 1.0000000180025095e-35 8.693500000000002 2.5000000000000004 9.9465000000000021
decision_type=2 2 2 8 2 2 10 2 2 2 2 2
left_child=1 -1 3 -2 5 -3 7 10 9 -7 -5 -10
right_child=2 4 -4 6 -6 8 -8 -9 11 -11 -12 -13
leaf_value=-0.16601148521958031 -0.16181532132219834 0.12207594326520516 -0.094575286729007113 -0.15916162040333756 0.12263984845988839 0.11944787002971749 -0.16017279063222908 -0.15857855818509736 0.11950811395317176 0.12075842397870927 -0.15935125534163463 0.11950811395317176
leaf_weight=4.2974464595317832 4.6873027384281185 2.926638036966323 8.1149272322654706 4.9043232649564779 2.8750940412282935 3.1350287348031989 5.1596895009279242 7.6869854032993326 35.513525009155273 2.8438285291194916 6.3107749223709106 4.91725730895996
leaf_count=18 20 20 33 21 20 23 22 33 260 20 27 36
internal_value=0 0.0981465 -0.145334 -0.159661 0.119889 0.119729 -0.159242 -0.158988 0.119581 0.120071 -0.159268 0.119508
internal_weight=0 56.5088 36.864 28.7491 52.2114 49.3363 24.0618 18.9021 46.4096 5.97886 11.2151 40.4308
internal_count=553 397 156 123 379 359 103 81 339 43 48 296
is_linear=0
shrinkage=0.1


Tree=7
num_leaves=12
num_cat=0
split_feature=3 6 1 9 1 3 1 2 4 1 3
split_gain=113.876 28.4448 2.67193 0.0818795 0.0238144 0.00168815 0.0012046 0.000356592 0.000115255 0.000178505 7.30041e-05
threshold=61.915226626755931 1.0000000180025095e-35 8.2250000000000032 1.5000000000000002 5.7915000000000001 58.335175096378471 6.7255000000000011 7.7390059183195685 1.0000000180025095e-35 8.693500000000002 471.98200402394428
decision_type=2 2 2 2 2 2 2 10 2 2 2
left_child=1 5 3 4 7 6 -1 10 9 -8 -2
right_child=2 -3 -4 -5 -6 -7 8 -9 -10 -11 -12
leaf_value=0.11955129454490498 -0.15045260826628112 -0.15595356797394733 -0.076219723083429405 -0.14121019282956837 -0.1587099633874651 0.12009804487220035 0.11725825319330574 -0.15121250270323683 0.11731065546941609 0.11839805896989378 -0.14991827376117325
leaf_weight=2.7011627852916709 4.4576589018106478 4.1258555352687827 6.162629857659339 9.8347729444503802 4.5782224982976905 2.6537065654993048 2.8869285434484473 4.4792587906122199 37.233191609382629 2.621851272881031 5.9966669529676437
leaf_count=20 20 18 25 44 20 20 23 20 296 20 27
internal_value=0 0.0960306 -0.13608 -0.14865 -0.1524 0.117646 0.117503 -0.150466 0.117374 0.117801 -0.150146
internal_weight=0 52.2227 35.5092 29.3466 19.5118 48.0968 45.4431 14.9336 42.742 5.50878 10.4543
internal_count=553 397 156 131 87 379 359 67 339 43 47
is_linear=0
shrinkage=0.1


Tree=8
num_leaves=14
num_cat=0
split_feature=3 6 2 2 1 3 1 10 4 1 4 2 1
split_gain=98.6117 25.0521 2.78342 0.156498 0.00918532 0.0012417 0.000851908 0.000301124 8.09749e-05 0.000125292 3.72992e-05 9.01495e-06 7.10543e-15
threshold=61.915226626755931 1.0000000180025095e-35 2.6775568436410047 8.2571577455597396 6.2185000000000015 58.335175096378471 6.7255000000000011 1.5000000000000002 1.0000000180025095e-35 8.693500000000002 1.5000000000000002 6.4636778661494843 9.7995000000000001
decision_type=2 2 8 10 2 2 2 2 2 2 2 8 2
left_child=1 5 -2 4 7 6 -1 10 9 -8 -4 -9 -10
right_child=2 -3 3 -5 -6 -7 8 11 12 -11 -12 -13 -14
leaf_value=0.1173580786922172 -0.064516550731940389 -0.14790422131098879 -0.14354012449676354 -0.12406221313903819 -0.14840307828456639 0.11788241725695647 0.11534871212859921 -0.14286087465150288 0.11539452020258655 0.11634453586523588 -0.14391786331382725 -0.14306796600476157 0.11539452020258655
leaf_weight=2.4874323159456244 5.6970679163932791 3.9256163835525504 4.437736213207252 4.5146721750497809 4.5661495625972739 2.4439758583903304 2.6532165110111228 4.199981451034545 28.093252569437027 2.4120627045631409 6.3610866814851761 4.2081566005945215 6.1273349225521079
leaf_count=20 23 18 21 21 21 20 23 20 243 20 30 20 53
internal_value=0 0.0941977 -0.128287 -0.14113 -0.144372 0.115692 0.115563 -0.143413 0.11545 0.115823 -0.143763 -0.142965 0.115395
internal_weight=0 48.1429 33.9849 28.2878 23.7731 44.2173 41.7733 19.207 39.2859 5.06528 10.7988 8.40814 34.2206
internal_count=553 397 156 133 112 379 359 91 339 43 51 40 296
is_linear=0
shrinkage=0.1


Tree=9
num_leaves=12
num_cat=0
split_feature=3 13 1 2 3 1 2 10 4 1 3
split_gain=85.8074 22.1498 2.79729 0.00123059 0.000915537 0.00060577 0.000488733 0.000171012 5.72334e-05 8.84756e-05 1.86952e-05
threshold=61.915226626755931 1.0000000180025095e-35 7.0720000000000001 3.925743651960365 58.335175096378471 6.7255000000000011 7.7390059183195685 1.5000000000000002 1.0000000180025095e-35 8.693500000000002 852.43320787944765
decision_type=2 2 2 8 2 2 10 2 2 2 2
left_child=1 -1 3 -2 5 -3 7 10 9 -7 -5
right_child=2 4 -4 6 -6 8 -8 -9 -10 -11 -12
leaf_value=-0.14134173188443791 -0.13982607339082614 0.1154438654445914 -0.069506195827765557 -0.13777275925100857 0.11594241370798408 0.11367655563455203 -0.13884167708338077 -0.13726107202542345 0.11371673959861871 0.11455000375647964 -0.13805332229585679
leaf_weight=3.7082661390304557 4.0151483118534115 2.2861192300915709 7.8081790059804908 4.3779649585485529 2.2464976683259001 2.4342271313071242 4.432109683752059 6.5261354297399494 31.397409379482269 2.2149556502699852 5.1912538409233093
leaf_count=18 20 20 33 22 20 23 22 33 296 20 26
internal_value=0 0.0926018 -0.121639 -0.138225 0.11398 0.113865 -0.137912 -0.137656 0.113765 0.114093 -0.137925
internal_weight=0 44.2875 32.3508 24.5426 40.5792 38.3327 20.5275 16.0954 36.0466 4.64918 9.56922
internal_count=553 397 156 123 379 359 103 81 339 43 48
is_linear=0
shrinkage=0.1


Tree=10
num_leaves=14
num_cat=0
split_feature=3 6 2 2 1 3 1 10 4 1 4 2 1
split_gain=74.9208 19.6454 2.84169 0.171645 0.00897698 0.000676287 0.000432791 0.000133177 4.06621e-05 6.28082e-05 1.77069e-05 5.1171e-06 7.10543e-15
threshold=61.915226626755931 1.0000000180025095e-35 2.6775568436410047 8.2571577455597396 6.2185000000000015 58.335175096378471 6.7255000000000011 1.5000000000000002 1.0000000180025095e-35 8.693500000000002 1.5000000000000002 6.4636778661494843 10.137500000000001
decision_type=2 2 8 10 2 2 2 2 2 2 2 8 2
left_child=1 5 -2 4 7 6 -1 10 9 -8 -4 -9 -10
right_child=2 -3 3 -5 -6 -7 8 11 12 -11 -12 -13 -14
leaf_value=0.11376640396574321 -0.05142193587223403 -0.13591115449651892 -0.13285103247022184 -0.1113009316686995 -0.13797456579355724 0.11423714407892452 0.11220696838874758 -0.13236549890857338 0.11224233944737123 0.11297570540793134 -0.13312830015801594 -0.13253182880683517 0.11224233944737126
leaf_weight=2.0974979251623145 5.6093219667673138 3.4824117422103873 3.9087378233671295 4.0485337674617758 4.1157043427228919 2.0614982172846785 2.2299451380968085 3.6943573057651493 26.139857105910782 2.0306667611002922 5.6076085269451141 3.7041518092155457 2.6237031295895568
leaf_count=20 23 18 21 21 21 20 23 20 269 20 30 20 27
internal_value=0 0.091206 -0.115765 -0.130156 -0.133786 0.112477 0.112374 -0.132767 0.112285 0.112573 -0.133014 -0.132449 0.112242
internal_weight=0 40.6656 30.6884 25.0791 21.0306 37.1832 35.1217 16.9149 33.0242 4.26061 9.51635 7.39851 28.7636
internal_count=553 397 156 133 112 379 359 91 339 43 51 40 296
is_linear=0
shrinkage=0.1


Tree=11
num_leaves=14
num_cat=0
split_feature=3 13 1 2 2 3 1 10 4 1 3 1 2
split_gain=65.6231 17.4694 2.92039 0.00108097 0.000635568 0.000500245 0.000310478 7.69852e-05 2.90222e-05 4.47954e-05 8.78964e-06 7.10543e-15 1.77636e-15
threshold=61.915226626755931 1.0000000180025095e-35 7.0720000000000001 3.925743651960365 7.7390059183195685 58.335175096378471 6.7255000000000011 1.5000000000000002 1.0000000180025095e-35 8.693500000000002 852.43320787944765 8.9725000000000019 1.7081016839173473
decision_type=2 2 2 8 10 2 2 2 2 2 2 2 8
left_child=1 -1 3 -2 7 6 -3 10 9 -8 -5 -10 -13
right_child=2 5 -4 4 -6 -7 8 -9 11 -11 -12 12 -14
leaf_value=-0.13136221561234487 -0.13095695301108964 0.11229118568334949 -0.056992428486943726 -0.12880890609317955 -0.13016815004995749 0.11273314911674726 0.11091131200372853 -0.12844368546758839 0.11094253430334439 0.11158993581434379 -0.12901482726936001 0.1109425343033445 0.11094253430334439
leaf_weight=3.2544299066066733 3.5248339474201265 1.9215471148490895 7.5326219052076331 3.8199203908443522 3.9156890213489524 1.8889282643795002 2.0400992333889039 5.689158037304872 16.35835945606232 1.8590694591403005 4.5322525203227997 1.9558908045291872 8.0013714730739594
leaf_count=18 20 20 33 22 22 20 23 33 184 20 26 22 90
internal_value=0 0.0899807 -0.110569 -0.129356 -0.129042 0.111152 0.111059 -0.128727 0.11098 0.111235 -0.128921 0.110943 0.110943
internal_weight=0 37.2797 29.0145 21.4819 17.957 34.0253 32.1363 14.0413 30.2148 3.89917 8.35217 26.3156 9.95726
internal_count=553 397 156 123 103 379 359 81 339 43 48 296 112
is_linear=0
shrinkage=0.1


Tree=12
num_leaves=18
num_cat=0
split_feature=9 3 6 2 3 1 1 2 3 8 2 4 3 1 1 1 1
split_gain=58.6232 11.0443 10.23 6.02038 0.962452 0.681621 0.587336 0.000440439 0.000293384 7.41222e-05 4.51081e-05 8.96085e-06 1.58657e-06 6.15721e-07 3.55271e-15 3.55271e-15 3.55271e-15
threshold=1.0000000180025095e-35 61.915226626755931 1.0000000180025095e-35 3.120325490390325 214.14809251923026 8.5900000000000016 6.2515000000000009 7.7390059183195685 53.893397155996126 2.5000000000000004 2.7121152425972013 1.5000000000000002 57.056984848859081 7.2745000000000006 10.111000000000002 9.8780000000000019 9.3670000000000027
decision_type=2 2 2 8 2 2 2 10 2 2 8 2 2 2 2 2 2
left_child=3 2 8 4 10 6 7 9 -2 11 12 -3 13 -1 15 16 -15
right_child=1 5 -4 -5 -6 -7 -8 -9 -10 -11 -12 -13 -14 14 -16 -17 -18
leaf_value=0.10973085761720854 0.11016708584284313 -0.1252776413785282 -0.12751314356910642 -0.077119844591133788 0.18793359694481804 -0.16421214697885067 -0.081245090592844502 -0.12647766697821963 0.11185831899080859 -0.12492235565508347 0.11029474226791432 -0.12548964950884159 0.10968610261853261 0.10979346740843671 0.10979346740843679 0.10979346740843679 0.10979346740843679
leaf_weight=1.696904398500936 2.8406271561980274 3.38224597275258 3.028989315032959 1.7416450083255757 1.6779883354902256 3.7099647670984259 3.6473744064569464 3.4745770245790473 1.6054239794611929 5.2693355232477179 1.8456905707716931 4.8558722734451294 1.6100884079933155 14.623654335737237 2.2747906744480124 1.6248504817485798 2.5997607707977286
leaf_count=21 34 21 18 12 7 16 20 21 18 33 22 30 20 180 28 20 32
internal_value=0 -0.0920985 0.014219 0.103268 0.114507 -0.12475 -0.117654 -0.125474 0.110778 -0.125215 0.109818 -0.125403 0.109782 0.109789 0.109793 0.109793 0.109793
internal_weight=0 31.8144 7.47504 29.6954 27.9537 24.3394 20.6294 16.982 4.44605 13.5075 26.2757 8.23812 24.43 22.82 21.1231 18.8483 17.2234
internal_count=553 211 70 342 330 141 125 105 52 84 323 51 301 281 260 232 212
is_linear=0
shrinkage=0.1


Tree=13
num_leaves=17
num_cat=0
split_feature=9 3 6 2 3 1 1 2 3 8 2 4 3 1 1 1
split_gain=51.6151 9.5398 9.0848 5.3856 0.499236 0.495806 0.61059 0.000301347 0.000216298 5.07118e-05 3.26759e-05 6.13193e-06 1.14033e-06 4.42211e-07 3.55271e-15 3.55271e-15
threshold=1.0000000180025095e-35 61.915226626755931 1.0000000180025095e-35 3.120325490390325 214.14809251923026 8.5900000000000016 6.2515000000000009 7.7390059183195685 53.893397155996126 2.5000000000000004 2.7121152425972013 1.5000000000000002 57.056984848859081 7.2745000000000006 10.137500000000001 9.7995000000000001
decision_type=2 2 2 8 2 2 2 10 2 2 10 2 2 2 2 2
left_child=3 2 8 4 10 6 7 9 -2 11 12 -3 13 -1 15 -15
right_child=1 5 -4 -5 -6 -7 -8 -9 -10 -11 -12 -13 -14 14 -16 -17
leaf_value=0.10871960583436101 0.10910706799122112 -0.12230126002460472 -0.12422856109344155 -0.070898853736233586 0.164538120562712 -0.15472560798455096 -0.076302611939731854 -0.12333252169888087 0.11062603374941722 -0.12199580839681815 0.10922162741126989 -0.12248353212767014 0.10867987171402314 0.10877514139073406 0.1087751413907341 0.1087751413907341
leaf_weight=1.5489727556705641 2.5939979106187847 3.1310004144907051 2.8094448149204254 1.7069148272275914 1.7221360206603993 3.5517587363719931 3.5029370635747901 3.219941332936286 1.4679994434118269 4.8763405084609985 1.6856175884604443 4.496020033955574 1.4696659967303265 15.500321812927728 1.9282696992158879 1.8541054800152768
leaf_count=21 34 21 18 12 7 16 20 21 18 33 22 30 20 209 26 25
internal_value=0 -0.0892446 0.0140304 0.101111 0.112531 -0.1204 -0.114058 -0.12247 0.109656 -0.122248 0.108797 -0.122409 0.108765 0.108771 0.108775 0.108775
internal_weight=0 29.6494 6.87144 27.416 25.7091 22.778 19.2262 15.7233 4.062 12.5034 23.987 7.62702 22.3013 20.8317 19.2827 17.3544
internal_count=553 211 70 342 330 141 125 105 52 84 323 51 301 281 260 234
is_linear=0
shrinkage=0.1


Tree=14
num_leaves=16
num_cat=0
split_feature=9 3 6 2 1 1 3 1 3 2 2 8 3 1 1
split_gain=45.5361 8.27119 8.08563 4.83636 0.373021 0.874325 0.242614 0.000322613 0.000159628 0.000126962 2.3729e-05 1.59759e-05 8.21766e-07 3.18565e-07 3.55271e-15
threshold=1.0000000180025095e-35 61.915226626755931 1.0000000180025095e-35 3.120325490390325 8.5900000000000016 6.5015000000000009 214.14809251923026 5.2780000000000014 53.893397155996126 7.4779287427739991 2.7121152425972013 2.5000000000000004 57.056984848859081 7.2745000000000006 8.0160000000000018
decision_type=2 2 2 8 2 2 2 2 2 10 10 2 2 2 2
left_child=3 2 8 6 5 7 10 9 -2 11 12 -3 13 -1 -15
right_child=1 4 -4 -5 -6 -7 -8 -9 -10 -11 -12 -13 -14 14 -16
leaf_value=0.107821343031863 0.10816617352164891 -0.11984735167269728 -0.12140552274195276 -0.065057618862104802 -0.14705837624737703 -0.058660178467673622 0.14671729335858011 -0.12108603852033484 0.10953181794294167 -0.12051085222528922 0.1082690707316365 -0.1195622432161801 0.10778601365320456 0.10787070127882846 0.10787070127882857
leaf_weight=1.4126473814249205 2.3665180653333695 6.2180352210998588 2.5981403291225433 1.675855129957198 3.3724488466978064 2.7259102016687384 1.7371283918619145 3.1020466387271872 1.3408907800912855 2.9643838703632346 1.5379417464137066 2.8736666142940521 1.3402724117040623 3.7202228978276279 13.86628534644842
leaf_count=21 34 45 18 12 16 16 7 22 18 21 22 21 20 55 205
internal_value=0 -0.0867165 0.0138638 0.0990969 -0.116553 -0.1108 0.110747 -0.120177 0.10866 -0.119943 0.10789 -0.119757 0.107862 0.107867 0.107871
internal_weight=0 27.562 6.30555 25.2904 21.2565 17.884 23.6145 15.1581 3.70741 12.0561 21.8774 9.0917 20.3394 18.9992 17.5865
internal_count=553 211 70 342 141 125 330 109 52 87 323 66 301 281 260
is_linear=0
shrinkage=0.1


Tree=15
num_leaves=19
num_cat=0
split_feature=9 3 6 2 3 2 1 1 2 3 2 3 2 2 1 3 1 1
split_gain=40.2383 7.19408 7.21 5.09166 0.713373 0.329302 0.790496 0.223737 0.152411 0.0267081 0.000190314 0.000117902 1.30927e-05 4.06013e-09 1.80336e-11 4.1851e-12 3.55271e-15 8.88178e-16
threshold=1.0000000180025095e-35 61.915226626755931 1.0000000180025095e-35 3.1862912261264889 464.79481808163956 2.6591948623530639 6.3710000000000013 7.0720000000000001 2.6591948623530639 57.258684360996519 7.7390059183195685 53.893397155996126 5.3229751578040201 2.603611576628317 7.5020000000000016 55.059054519474849 8.7015000000000011 8.3790000000000031
decision_type=2 2 2 8 2 10 2 2 8 2 10 2 10 8 2 2 2 2
left_child=3 2 11 4 7 8 10 -1 -3 13 12 -2 -7 14 -9 16 17 -16
right_child=1 5 -4 -5 -6 6 -8 9 -10 -11 -12 -13 -14 -15 15 -17 -18 -19
leaf_value=0.072152339486989014 0.10732933257161661 -0.14504541250845887 -0.11896423415091789 -0.085208274214582214 0.18286052816914961 -0.11719990464895054 -0.057274910661498701 0.10706628600855575 -0.1175777529291635 0.12234307586539526 -0.11837570748604692 0.10855820353681152 -0.11751489870282508 0.10706009665496491 0.10706587144813118 0.10706605571451484 0.10706587144813114 0.10706587144813109
leaf_weight=1.9119523838162518 2.1571556627750428 3.2039270699024209 2.3966443687677383 1.4361868798732746 1.2390184402465809 2.5037425905466062 2.9418736547231665 1.2328652366995907 5.4672087877988824 1.2243134081363667 2.8828207552433014 1.2236127108335493 2.7899127751588821 1.293524708598851 4.0682482346892339 1.3561134934425343 7.6433754712343216 1.9108438678085802
leaf_count=26 34 15 18 10 5 20 19 20 43 17 22 18 22 21 66 22 124 31
internal_value=0 -0.0844584 0.0137162 0.0971893 0.109162 -0.11312 -0.101728 0.104738 -0.127727 0.108064 -0.117722 0.107774 -0.117366 0.107065 0.107066 0.107066 0.107066 0.107066
internal_weight=0 25.5669 5.77741 23.3164 21.8803 19.7895 11.1183 20.6412 8.67114 18.7293 8.17648 3.38077 5.29366 17.505 16.2114 14.9786 13.6225 5.97909
internal_count=553 211 70 342 332 141 83 327 58 301 64 52 42 284 263 243 221 97
is_linear=0
shrinkage=0.1


Tree=16
num_leaves=16
num_cat=0
split_feature=3 6 9 1 2 1 2 1 9 4 1 3 1 1 2
split_gain=35.7793 9.11743 4.15623 0.395102 0.00137609 0.000872322 9.82359e-05 2.85005e-05 1.51591e-05 5.86147e-06 1.1118e-05 1.67411e-06 3.06501e-07 6.07264e-08 1.76517e-09
threshold=60.270069377823738 1.0000000180025095e-35 1.0000000180025095e-35 7.0720000000000001 2.92519611178452 5.721000000000001 7.7390059183195685 7.0040000000000004 1.5000000000000002 1.0000000180025095e-35 8.8240000000000016 56.960463769854194 3.7450000000000006 7.394000000000001 2.5592128327655463
decision_type=2 2 2 2 10 2 10 2 2 2 2 2 2 2 10
left_child=1 4 -2 5 7 6 8 -1 12 10 -9 13 -4 -11 -15
right_child=2 -3 3 -5 -6 -7 -8 9 -10 11 -12 -13 -14 14 -16
leaf_value=0.10685493495148282 0.022227641416228024 -0.11714622953349332 -0.11538737573195153 -0.08289914749291194 0.10995431866873817 -0.11775052641362614 -0.11624250444134554 0.10629120376849895 -0.11567406127874874 0.10637222897903749 0.10672633482014793 0.10622793726468499 -0.1154382363222404 0.106348448595106 0.10634440932372968
leaf_weight=1.2483360283076859 2.8404102027416256 1.9900504648685444 2.3098668977618235 4.8346813172101966 1.1453759521245945 2.5062437728047362 2.5231530964374533 1.1693425923585921 4.2170510143041611 1.1262154020369077 1.179495748132467 1.2140180021524418 2.4327869713306427 13.246989060193298 1.1780967228114594
leaf_count=21 15 16 20 27 16 20 21 21 36 20 20 22 21 236 21
internal_value=0 0.0876341 -0.0905288 -0.107543 0.106582 -0.11606 -0.115691 0.106392 -0.115536 0.106362 0.10651 0.106341 -0.115413 0.10635 0.106348
internal_weight=0 23.4979 21.6642 18.8238 21.5079 13.9891 11.4829 20.3625 8.9597 19.1142 2.34884 16.7653 4.74265 15.5513 14.4251
internal_count=553 393 160 145 377 118 98 361 77 340 41 299 41 277 257
is_linear=0
shrinkage=0.1


Tree=17
num_leaves=16
num_cat=0
split_feature=3 6 9 2 1 1 2 3 2 1 2 4 1 3 2
split_gain=31.7332 8.97735 3.95052 0.308545 0.92419 0.0855684 0.00095265 0.000252353 0.00010669 2.11713e-05 7.01616e-06 4.13152e-06 4.80242e-08 1.24567e-08 1.34836e-09
threshold=61.915226626755931 1.0000000180025095e-35 1.0000000180025095e-35 2.6591948623530639 6.5015000000000009 6.4560000000000004 2.92519611178452 58.335175096378471 7.4779287427739991 7.0040000000000004 5.3229751578040201 1.0000000180025095e-35 7.394000000000001 55.493220705255858 2.5592128327655463
decision_type=2 2 2 10 2 2 10 2 10 2 10 2 2 2 10
left_child=1 6 -2 5 8 -4 7 9 10 -1 -5 -11 -13 14 -14
right_child=2 -3 3 4 -6 -7 -8 -9 -10 11 -12 12 13 -15 -16
leaf_value=0.10618258135274944 0.01992289579639106 -0.11498581044718832 -0.11392201697781111 -0.11361589958477691 -0.043793246042091366 -0.13583557322008735 0.10894657574563552 0.10733697100933537 -0.1145431789539765 0.10586211486150271 -0.11387292609766256 0.10572921407493688 0.10570796115801724 0.10569641391939862 0.10570416918349197
leaf_weight=1.0854749940335882 2.8514783978462246 2.0263382494449607 4.6125276610255268 2.1089746206998807 2.5528272911906242 2.9036668837070465 1.0454748310148705 1.0689333453774441 2.7680917307734489 1.9845322445034987 2.1394308730959892 1.0249227546155459 11.493387892842291 1.0707545317709435 1.0210290737450112
leaf_count=20 15 18 43 20 18 15 16 19 25 38 20 20 225 21 20
internal_value=0 0.0854866 -0.0890394 -0.107225 -0.0953149 -0.122388 0.106009 0.105845 -0.11406 0.105755 -0.113745 0.105727 0.105708 0.105707 0.105708
internal_weight=0 21.8208 19.937 17.0855 9.56932 7.51619 19.7945 18.749 7.0165 17.6801 4.24841 16.5946 14.6101 13.5852 12.5144
internal_count=553 397 156 141 83 58 379 363 65 344 40 324 286 266 245
is_linear=0
shrinkage=0.1


Tree=18
num_leaves=18
num_cat=0
split_feature=3 6 9 1 2 1 3 2 1 8 4 3 1 3 2 1 1
split_gain=28.0774 8.06229 3.62678 0.308716 0.000701672 0.000696773 0.000188081 4.36871e-05 1.54593e-05 4.57771e-06 3.0109e-06 7.45631e-07 3.49615e-08 9.05804e-09 9.77737e-10 1.77636e-15 1.77636e-15
threshold=61.915226626755931 1.0000000180025095e-35 1.0000000180025095e-35 7.0720000000000001 2.92519611178452 5.721000000000001 58.335175096378471 7.7390059183195685 7.0040000000000004 2.5000000000000004 1.0000000180025095e-35 852.43320787944765 7.394000000000001 55.493220705255858 2.5592128327655463 10.250000000000002 9.8890000000000011
decision_type=2 2 2 2 10 2 2 10 2 2 2 2 2 2 10 2 2
left_child=1 4 -2 5 6 7 8 9 -1 11 -10 -4 -12 14 15 16 -14
right_child=2 -3 3 -5 -6 -7 -8 -9 10 -11 12 -13 13 -15 -16 -17 -18
leaf_value=0.1055605525972388 0.017866713688439988 -0.11336109375698206 -0.11239612293196628 -0.081287132815465471 0.10804655818897452 -0.11448736252444008 0.10660870114475914 -0.11289546504733193 0.10527336117496251 -0.11227479115227441 0.10515439528932929 -0.11247588521608393 0.10513538020220542 0.10512505558208829 0.10513199436382542 0.1051353803626832 0.10513538032346673
leaf_weight=0.98767039924861322 2.8611347675323513 1.8584334403276432 2.1587479561567289 4.2186666876077643 0.95346176996827026 2.1569512337446204 0.97348063811659713 2.1237001717090607 1.8052087612450094 2.6290525943040848 0.9321990981698044 2.5640469044446945 8.5020931363105685 0.97385570034384805 0.92863669618964273 0.97565003484487611 0.97565004229545671
leaf_count=20 15 18 22 25 16 20 19 21 38 27 20 26 183 21 20 21 21
internal_value=0 0.0849415 -0.0857569 -0.104461 0.105407 -0.112865 0.105259 -0.112496 0.105177 -0.112381 0.105152 -0.112439 0.105136 0.105134 0.105135 0.105135 0.105135
internal_weight=0 19.8663 18.7123 15.8512 18.0079 11.6325 17.0544 9.47555 16.081 7.35185 15.0933 4.72279 13.2881 12.3559 11.382 10.4534 9.47774
internal_count=553 397 156 141 379 116 363 96 344 75 324 48 286 266 245 225 204
is_linear=0
shrinkage=0.1


Tree=19
num_leaves=17
num_cat=0
split_feature=3 6 1 8 2 1 3 2 1 9 4 1 3 2 1 1
split_gain=24.87 7.24628 3.37813 0.019806 0.000517186 0.000352267 0.000140131 1.88024e-05 1.13058e-05 3.22494e-06 2.19797e-06 2.55204e-08 6.60021e-09 7.10509e-10 1.77636e-15 1.77636e-15
threshold=61.915226626755931 1.0000000180025095e-35 7.0720000000000001 1.5000000000000002 2.92519611178452 5.6255000000000015 58.335175096378471 7.0880418032938453 7.0040000000000004 1.5000000000000002 1.0000000180025095e-35 7.394000000000001 55.493220705255858 2.5592128327655463 10.191000000000001 7.8375000000000012
decision_type=2 2 2 2 8 2 2 10 2 2 2 2 2 10 2 2
left_child=1 4 3 -2 6 7 8 9 -1 -5 -10 -12 13 14 15 -13
right_child=2 -3 -4 5 -6 -7 -8 -9 10 -11 11 12 -14 -15 -16 -17
leaf_value=0.1050041544662611 -0.12160379017704422 -0.11193164611958828 -0.020433995351241078 -0.11097360632918363 0.10724162450950306 -0.11265684797602014 0.10595561241283045 -0.11143622542619791 0.1047465196393727 -0.11113383608295757 0.10463991710590029 0.10462287701250961 0.10461363328666276 0.10461984938623739 0.10462287664181061 0.10462287662256692
leaf_weight=0.89817482978105978 2.4518161043524769 1.7019521594047535 5.824563041329383 2.0493778437376005 0.86887240782380004 2.0415471792221069 0.88599386066198427 1.9327850565314291 1.6412166468799085 3.2452732920646667 0.84742410480976182 0.84467463195323222 0.88526901230216104 0.84416862577200014 0.92914216965437013 7.7287735342979431
leaf_count=20 22 18 33 23 16 21 19 21 38 36 20 20 21 20 22 183
internal_value=0 0.0844543 -0.082679 -0.113611 0.104867 -0.111497 0.104734 -0.111169 0.10466 -0.111072 0.104638 0.104623 0.104622 0.104623 0.104623 0.104623
internal_weight=0 18.0757 17.5454 11.7208 16.3737 9.26898 15.5048 7.22744 14.6188 5.29465 13.7207 12.0795 11.232 10.3468 9.50259 8.57345
internal_count=553 397 156 123 379 101 363 80 344 59 324 286 266 245 225 203
is_linear=0
shrinkage=0.1


Tree=20
num_leaves=19
num_cat=0
split_feature=9 2 3 6 3 2 3 3 1 1 2 3 1 8 3 2 1 3
split_gain=22.4955 4.91681 3.79011 4.17851 0.479015 0.349013 0.311845 0.226112 0.0411952 0.000323435 0.000216789 7.4811e-05 1.49006e-06 3.12322e-07 8.97279e-08 2.55209e-10 3.00204e-13 2.84217e-14
threshold=1.0000000180025095e-35 3.3313730536956694 61.915226626755931 1.0000000180025095e-35 464.79481808163956 8.2571577455597396 58.974561040446616 852.43320787944765 7.394000000000001 5.5405000000000006 2.8758844007127844 53.893397155996126 7.2170000000000014 2.5000000000000004 56.017851452243811 2.5382677889112393 7.573500000000001 54.060146738192522
decision_type=2 8 2 2 2 10 2 2 2 2 10 2 2 2 2 10 2 2
left_child=1 4 3 11 6 7 10 8 9 13 12 -2 -1 -4 15 16 -14 -18
right_child=2 -3 5 -5 -6 -7 -8 -9 -10 -11 -12 -13 14 -15 -16 -17 17 -19
leaf_value=0.10430028416225921 0.10431374968228102 -0.1045328379516318 -0.10985716513145563 -0.11067015379512729 0.16633483043623751 -0.060854439601355205 0.04066771955711522 -0.085089273653581154 -0.12506629897460944 -0.11147162466209613 0.10587810309374766 0.10553936204289634 0.10416359370367351 -0.10979813091991519 0.10412788539583942 0.10416175499720925 0.10416365727581399 0.10416367660694355
leaf_weight=0.82711642235516691 1.3438017554581199 1.2044778168201453 1.7967957407236081 1.5566432178020475 1.1987958103418357 1.9334248229861248 0.82203149795532304 3.4309212192893019 2.9586286097764969 1.7967018038034437 0.79519369453191835 0.7913035787642001 0.76747905090450785 1.7879415452480316 0.76129323244094926 0.76716665923595506 7.5981595516204816 0.80586864426732052
leaf_count=21 34 9 22 18 5 21 11 37 19 20 17 18 20 22 20 20 198 21
internal_value=0 0.0895255 -0.0760044 0.0139275 0.105822 -0.100231 0.100303 -0.106698 -0.115588 -0.110377 0.104281 0.104768 0.104171 -0.109828 0.104161 0.104164 0.104164 0.104164
internal_weight=0 15.5476 17.3962 3.69175 14.3431 13.7044 13.1443 11.771 8.34007 5.38144 12.3223 2.13511 11.5271 3.58474 10.7 9.93867 9.17151 8.40403
internal_count=553 342 211 70 333 141 328 120 83 64 317 52 300 44 279 259 239 219
is_linear=0
shrinkage=0.1


Tree=21
num_leaves=20
num_cat=0
split_feature=9 2 3 6 1 3 3 1 2 2 3 3 1 8 3 2 1 3 1
split_gain=19.9567 4.36844 3.30693 3.75291 0.419118 0.339058 0.370127 0.000221687 0.000160013 6.10073e-05 5.55648e-05 1.53897e-05 1.07787e-06 1.58585e-07 2.62414e-08 1.88415e-10 2.62901e-13 9.9476e-14 8.88178e-16
threshold=1.0000000180025095e-35 3.3313730536956694 61.915226626755931 1.0000000180025095e-35 7.0720000000000001 464.79481808163956 59.071955867808903 5.721000000000001 2.8758844007127844 7.7390059183195685 53.893397155996126 852.43320787944765 7.2170000000000014 2.5000000000000004 56.11594501999673 2.5382677889112393 7.573500000000001 54.060146738192522 10.137500000000001
decision_type=2 8 2 2 2 2 2 2 10 10 2 2 2 2 2 10 2 2 2
left_child=1 5 3 10 7 6 8 9 12 11 -2 13 -1 -4 15 16 -14 18 -18
right_child=2 -3 4 -5 -6 -7 -8 -9 -10 -11 -12 -13 14 -15 -16 -17 17 -19 -20
leaf_value=0.10387450877849719 0.10388654907626932 -0.099937934996019981 -0.10883165437670353 -0.1095539079073975 -0.069415682820051283 0.15616986170088779 0.03073644869412262 -0.11038710991453007 0.10529663829846954 -0.10963648391690002 0.10499444849407219 -0.10914388344001209 0.10375172281859246 -0.10878763619418573 0.10373146846510142 0.10375007025267668 0.10375178296106478 0.10375182002870434 0.10375178296106467
leaf_weight=0.75131709501146815 1.220667179673913 1.1374004110693938 1.6403430849313718 1.4221247583627699 3.7144770100712767 1.1515396088361747 0.73757722228765565 1.6608000472187994 0.72329153865575868 1.6812779456377027 0.71952749416232098 2.3794881328940392 0.69705996289848737 1.6335062757134438 0.69336499646306116 0.69677507877349931 6.0993689112365246 0.80163861438632 0.80163134261965741
leaf_count=21 34 9 22 18 25 5 9 20 17 21 18 31 20 22 20 20 175 23 23
internal_value=0 0.0880793 -0.0743444 0.013847 -0.0976748 0.104337 0.0993642 -0.109344 0.103858 -0.109108 0.104297 -0.10895 0.103759 -0.10881 0.10375 0.103752 0.103752 0.103752 0.103752
internal_weight=0 14.291 16.0722 3.36232 12.7099 13.1536 12.002 8.99542 11.2644 7.33462 1.94019 5.65334 10.5412 3.27385 9.78984 9.09647 8.3997 7.70264 6.901
internal_count=553 342 211 70 141 333 328 116 319 96 52 75 302 44 281 261 241 221 198
is_linear=0
shrinkage=0.1


Tree=22
num_leaves=22
num_cat=0
split_feature=9 2 3 6 1 1 3 3 1 2 3 3 3 8 2 3 2 3 1 1 1
split_gain=17.7286 3.88534 2.89477 3.37324 0.457121 0.293747 0.412411 0.265148 0.000161128 4.39462e-05 4.12643e-05 1.10874e-05 5.8341e-07 1.14309e-07 7.7153e-09 6.21725e-13 5.32907e-15 2.66454e-15 8.88178e-16 4.44089e-16 2.22045e-16
threshold=1.0000000180025095e-35 3.3313730536956694 61.915226626755931 1.0000000180025095e-35 7.0720000000000001 7.416500000000001 53.122486599978025 214.14809251923026 5.721000000000001 7.7390059183195685 53.893397155996126 852.43320787944765 56.960463769854194 2.5000000000000004 2.5696192514526728 54.726590119521859 2.4045833105118866 53.300991436665008 9.2970000000000024 8.6685000000000016 8.9635000000000016
decision_type=2 8 2 2 2 2 2 2 2 10 2 2 2 2 8 2 10 2 2 2 2
left_child=1 5 3 10 8 6 -1 12 9 11 -2 13 14 -4 15 16 17 18 19 -7 -21
right_child=2 -3 4 -5 -6 7 -8 -9 -10 -11 -12 -13 -14 -15 -16 -17 -18 -19 -20 20 -22
leaf_value=0.10385771892954898 0.10350314691338683 -0.095386432290502463 -0.10792095277744336 -0.10856385603265624 -0.065446803034032164 0.10338204645943672 0.0076089446028530768 0.15119587014455677 -0.10930776962606346 -0.10863603789608883 0.10450479187462963 -0.10819842053979518 0.10347755975698517 -0.10788182096471099 0.10337054282272209 0.10338215058280793 0.10338205592707042 0.10338204160129234 0.10338204664667838 0.10338204664667833 0.10338204664667827
leaf_weight=1.1501201093196876 1.1083881203085177 1.0757579356431968 1.4961276426911336 1.2979257479310033 3.5542733371257773 2.0568484850227793 0.72632992081344117 1.3353033512830723 1.5168324708938596 1.53457535803318 0.65395034663379181 2.1709005758166313 0.68020275235176164 1.489832729101181 0.63084450364112932 0.63289522752165783 0.63287824392318714 0.66452027857303608 2.056848481297493 0.82273939251899697 0.66452027857303619
leaf_count=34 34 9 22 18 25 65 14 6 20 21 18 31 21 22 20 20 20 21 65 26 21
internal_value=0 0.0867071 -0.0728641 0.0137749 -0.095405 0.102958 0.0666021 0.109661 -0.108377 -0.108166 0.103875 -0.108026 0.103389 -0.107901 0.103381 0.103382 0.103382 0.103382 0.103382 0.103382 0.103382
internal_weight=0 13.1298 14.8228 3.06026 11.7625 12.0541 1.87645 10.1776 8.20827 6.69144 1.76234 5.15686 8.8423 2.98596 8.16209 7.53125 6.89836 6.26548 5.60096 3.54411 1.48726
internal_count=553 342 211 70 141 333 48 285 116 96 52 75 279 44 258 238 218 198 177 112 47
is_linear=0
shrinkage=0.1


Tree=23
num_leaves=19
num_cat=0
split_feature=3 11 1 2 2 8 3 2 3 1 7 1 3 2 1 3 3 3
split_gain=15.8622 4.76832 2.93734 0.0210939 0.000606974 0.000425156 6.14878e-05 2.96065e-05 8.18404e-06 5.07566e-06 5.01045e-07 4.62914e-07 1.8478e-09 6.45433e-10 2.74447e-13 1.77636e-15 8.88178e-16 2.22045e-16
threshold=61.915226626755931 1.0000000180025095e-35 7.0720000000000001 3.8087823501929781 2.92519611178452 1.5000000000000002 58.335175096378471 7.4779287427739991 852.43320787944765 7.0040000000000004 2.5000000000000004 7.394000000000001 55.493220705255858 2.5592128327655463 7.8375000000000012 53.525642596300337 51.521739262645504 49.734220588775123
decision_type=2 2 2 8 10 2 2 10 2 2 2 2 2 10 2 2 2 2
left_child=1 4 3 -2 6 -5 9 8 -7 -1 11 -11 13 14 -13 16 17 -16
right_child=2 -3 -4 5 -6 7 -8 -9 -10 10 -12 12 -14 -15 15 -17 -18 -19
leaf_value=0.10335959558685376 -0.12096946540298524 -0.10768389176821558 -0.012962409324949568 -0.10932302917299411 0.10628579929414839 -0.10708950726232221 0.10409262031710385 -0.10775971191136623 -0.10737275125821022 0.10314108295806551 0.10312712890572472 0.103049791154466 0.10304379915594471 0.10304635740176862 0.10304986253963443 0.10304986806825683 0.10304986283676683 0.10304986332245838
leaf_weight=0.62045253813266477 1.4665698260068865 1.1835176423192031 4.9705256447195998 1.3865509480237967 0.65264366567134935 2.101562712341547 0.64158658869564611 1.4012175202369688 1.9823507890105245 0.589570622891184 1.1153945699334151 0.57438926026225079 0.6019777301698922 0.57377897389233101 0.57440213859081246 0.71800259314477433 4.0208150669932365 0.57440223544836044
leaf_count=20 18 18 33 19 16 34 19 21 31 20 38 20 21 20 20 25 140 20
internal_value=0 0.0832523 -0.0738101 -0.110082 0.103326 -0.107759 0.103144 -0.107363 -0.107227 0.103083 0.103064 0.103056 0.103049 0.10305 0.10305 0.10305 0.10305 0.10305
internal_weight=0 12.4409 13.3088 8.33825 11.2574 6.87168 10.6048 5.48513 4.08391 9.96319 9.34273 8.22734 7.63777 7.03579 6.46201 5.88762 5.16962 1.1488
internal_count=553 397 156 123 379 105 363 86 65 344 324 286 266 245 225 205 180 40
is_linear=0
shrinkage=0.1


Tree=24
num_leaves=21
num_cat=0
split_feature=9 2 3 6 2 3 1 3 3 1 1 2 3 3 3 2 3 1 1 1
split_gain=14.3626 3.23529 2.24222 2.73066 0.542599 0.290402 0.269144 0.482935 0.188947 0.0234101 9.63829e-05 2.35512e-05 2.27795e-05 3.02236e-07 1.05039e-07 4.66993e-09 3.29514e-13 1.77636e-15 8.88178e-16 4.44089e-16
threshold=1.0000000180025095e-35 3.3313730536956694 61.915226626755931 1.0000000180025095e-35 8.5332085332085352 852.43320787944765 7.5315000000000012 54.101752821449544 214.14809251923026 7.394000000000001 5.6255000000000015 2.5037172652577615 53.893397155996126 56.960463769854194 450.56389624420814 2.5592128327655463 54.189466467274272 8.2480000000000011 8.8500000000000032 9.6480000000000015
decision_type=2 8 2 2 10 2 2 2 2 2 2 10 2 2 2 8 2 2 2 2
left_child=1 6 3 12 5 9 7 11 13 10 14 -1 -2 15 -4 16 17 -8 -19 -20
right_child=2 -3 4 -5 -6 -7 8 -9 -10 -11 -12 -13 -14 -15 -16 -17 -18 18 19 -21
leaf_value=0.10279550584755243 0.10284897659648529 -0.090726810022199414 -0.10635553378310923 -0.1069003181322972 -0.029905074637973129 -0.07158253232171076 0.10275123321085269 -0.0056443411127568418 0.14463017123803076 -0.11913986251357456 -0.1074416824666433 0.10367770809720643 0.10366852831777305 0.10282697052037218 -0.10639560458825743 0.10274177558711675 0.10275131669168798 0.10275123342327497 0.10275123333467538 0.10275123333824845
leaf_weight=0.66089016944170065 0.9128638003021472 0.95780710875988084 1.1798069700598706 1.0783392190933225 1.2532440982758988 2.5416234284639359 1.0944658257067184 0.61243546195328225 1.2712949514389036 2.4830646961927414 1.2550159990787504 0.55818632431328297 0.53963899053633213 0.55996394902467717 1.4683201722800729 0.57140277139842499 0.52118956670165051 1.5374638196080921 1.3811114896088841 1.4071701951324938
leaf_count=25 34 9 21 18 18 37 42 13 6 19 20 18 18 21 26 22 20 59 53 54
internal_value=0 0.084978 -0.070582 0.0136539 -0.0915217 -0.100171 0.101517 0.0668034 0.109136 -0.111549 -0.10672 0.103199 0.103153 0.102756 -0.106378 0.10275 0.102751 0.102751 0.102751 0.102751
internal_weight=0 11.1334 12.7119 2.53084 10.1811 8.92783 10.1756 1.83151 8.34406 6.38621 3.90314 1.21908 1.4525 7.07277 2.64813 6.5128 5.9414 5.42021 4.32575 2.78828
internal_count=553 342 211 70 141 123 333 56 277 86 67 43 52 271 47 250 228 208 166 107
is_linear=0
shrinkage=0.1


Tree=25
num_leaves=18
num_cat=0
split_feature=9 2 1 7 1 1 3 3 2 2 3 2 8 3 2 3 1
split_gain=12.7348 2.87744 2.08805 3.10197 3.10187 0.269526 0.492035 0.13201 0.0224896 6.97247e-05 1.77689e-05 1.73052e-05 1.01303e-06 2.22242e-07 3.42568e-09 2.46914e-13 8.88178e-16
threshold=1.0000000180025095e-35 3.3313730536956694 6.7255000000000011 2.5000000000000004 8.5900000000000016 7.5315000000000012 54.392062194536216 214.14809251923026 3.925743651960365 8.2571577455597396 852.43320787944765 2.5037172652577615 2.5000000000000004 56.960463769854194 2.5592128327655463 54.189466467274272 9.9585000000000026
decision_type=2 8 2 2 2 2 2 2 8 10 2 10 2 2 10 2 2
left_child=1 5 8 -4 -5 6 11 13 -2 10 12 -1 -10 14 15 16 -7
right_child=2 -3 3 4 -6 7 -8 -9 9 -11 -12 -13 -14 -15 -16 -17 -18
leaf_value=0.1025326624761809 -0.090078192840243265 -0.086279174889786925 -0.11796381631237314 0.17477284321617867 -0.037103365809623784 0.10248257807925194 -0.0098697374903771781 0.13865874505729667 -0.10581142514736647 -0.10676133538574123 -0.10616467850650523 0.1033188396295439 -0.10569570254920767 0.10255076745860688 0.10247407296487179 0.10248265370481023 0.10248257806662693
leaf_weight=0.62570808455347993 1.0306490007787923 0.90905024111270982 1.8757986947894094 1.1479840725660326 1.7356601171195505 4.1838475130498409 0.5879532191902398 1.1972481459379194 1.7622566744685173 1.1852635592222212 1.695466700941324 0.5067327693104744 1.3253869526088238 0.50797145627439011 0.51830849051475514 0.47276514023542393 0.73276421800255764
leaf_count=26 20 9 15 30 35 177 12 6 34 20 31 18 26 21 22 20 31
internal_value=0 0.0835558 -0.0689691 -0.0178674 0.0472449 0.100097 0.0643501 0.108176 -0.103719 -0.106075 -0.105905 0.102884 -0.105762 0.102487 0.102482 0.102483 0.102483
internal_weight=0 10.2423 11.7585 4.75944 2.88364 9.3333 1.72039 7.6129 6.99902 5.96837 4.78311 1.13244 3.08764 6.41566 5.90769 5.38938 4.91661
internal_count=553 342 211 80 65 333 56 277 131 111 91 44 60 271 250 228 208
is_linear=0
shrinkage=0.1


Tree=26
num_leaves=16
num_cat=0
split_feature=3 6 1 2 2 8 2 3 3 1 10 1 3 2 3
split_gain=11.5118 3.41253 2.71769 0.0188082 0.0009029 0.000163936 3.15888e-05 1.93169e-05 1.18814e-05 3.93538e-06 2.89005e-06 1.89068e-06 7.92779e-10 6.02981e-10 1.77636e-15
threshold=60.411091555064353 1.0000000180025095e-35 7.0720000000000001 3.8087823501929781 2.9844674661787001 1.5000000000000002 7.4779287427739991 58.335175096378471 852.43320787944765 6.916500000000001 1.5000000000000002 7.5315000000000012 55.321785759124772 2.5382677889112393 53.805184147103752
decision_type=2 2 2 8 10 2 10 2 2 2 2 2 2 8 2
left_child=1 4 3 -2 7 -5 8 9 -7 -1 -11 -12 13 14 -13
right_child=2 -3 -4 5 -6 6 -8 -9 -10 10 11 12 -14 -15 -16
leaf_value=0.10258089981993637 -0.11962397989367364 -0.10577030171452265 -0.0070955652354699351 -0.10687310192214049 0.10680507291879665 -0.10515387787722263 -0.10596679330235147 0.10297436338869664 -0.10554375092939904 0.1024520059017863 0.10241399913954195 0.10224076259797364 0.1022359402168531 0.10223692537732786 0.10224075590229108
leaf_weight=0.47642401605844309 1.2043968513607959 0.86593408882618028 4.4526789300143719 1.1121009849011896 0.48005374707281667 1.5845341905951502 1.1118260249495504 0.45376226305961598 1.5426861494779585 0.89513094164430906 0.70503451116383242 4.1800502203404903 0.42783012427389611 0.44941514544188965 0.45015918649733055
leaf_count=20 18 17 34 20 13 34 21 18 31 39 31 195 20 21 21
internal_value=0 0.0833646 -0.0673842 -0.108334 0.102592 -0.105792 -0.105509 0.102341 -0.105346 0.102303 0.102284 0.10226 0.10224 0.10224 0.102241
internal_weight=0 9.38379 11.0082 6.55554 8.51786 5.35115 4.23905 8.03781 3.12722 7.58404 7.10762 6.21249 5.50745 5.07962 4.63021
internal_count=553 395 158 124 378 106 86 365 65 347 327 288 257 237 216
is_linear=0
shrinkage=0.1


Tree=27
num_leaves=19
num_cat=0
split_feature=9 2 1 7 1 1 3 2 2 3 1 8 3 2 3 1 1 1
split_gain=10.2675 2.41069 1.75346 2.65859 2.7161 0.449114 0.0959841 0.0259529 3.70507e-05 9.53927e-06 2.25932e-06 5.05866e-07 1.17255e-07 2.30745e-09 1.6076e-13 8.88178e-16 4.44089e-16 2.22045e-16
threshold=1.0000000180025095e-35 3.3313730536956694 6.7255000000000011 2.5000000000000004 8.5900000000000016 7.0720000000000001 214.14809251923026 3.925743651960365 8.2571577455597396 852.43320787944765 7.5315000000000012 2.5000000000000004 56.960463769854194 2.5592128327655463 54.189466467274272 8.0585000000000004 9.3670000000000027 9.7995000000000001
decision_type=2 8 2 2 2 2 2 8 10 2 2 2 2 10 2 2 2 2
left_child=1 5 7 -4 -5 -1 10 -2 9 11 -7 -9 13 14 15 -12 -17 -18
right_child=2 -3 3 4 -6 6 -8 8 -10 -11 12 -13 -14 -15 -16 16 17 -19
leaf_value=0.031222240291690701 -0.086181054097620904 -0.082113639174479017 -0.1158697819706124 0.16799787105750741 -0.037280889961536626 0.10223025752877815 0.13392232318765784 -0.10470246753949089 -0.10546535182461597 -0.10498846821460379 0.10202298488149071 -0.10461251947296252 0.10207753871817515 0.10201528753055676 0.10202305457351069 0.10202298775791081 0.10202298749229693 0.10202298640589816
leaf_weight=0.87602904997766096 0.86971422284841349 0.81314931809902269 1.7159357592463491 1.0608807466924193 1.6424274090677498 0.60804525017738331 1.1254736483097074 1.4562750272452836 0.98175051808357228 1.4028860554099081 0.60250142961740483 1.0956679843366146 0.41757269389927376 0.42599447071552266 0.38872309587895859 2.0796018466353421 0.48588821664452531 0.8745987992733717
leaf_count=27 20 9 15 30 35 29 6 34 20 31 31 26 21 22 20 107 25 45
internal_value=0 0.0818212 -0.0659826 -0.0185169 0.0432783 0.0987284 0.107166 -0.102109 -0.104915 -0.104779 0.102048 -0.104664 0.102027 0.102022 0.102023 0.102023 0.102023 0.102023
internal_weight=0 8.69758 10.2255 4.41924 2.70331 7.88443 7.0084 5.80629 4.93658 3.95483 5.88293 2.55194 5.27488 4.85731 4.43131 4.04259 3.44009 1.36049
internal_count=553 342 211 80 65 333 306 131 111 91 300 60 271 250 228 208 177 70
is_linear=0
shrinkage=0.1


Tree=28
num_leaves=16
num_cat=0
split_feature=3 6 1 1 2 8 4 1 2 1 3 3 3 2 1
split_gain=9.34728 2.83655 2.43913 0.0214798 0.000969996 0.000147955 2.36652e-05 2.69048e-05 1.75728e-05 7.02143e-06 6.33631e-06 2.37323e-07 4.20573e-09 2.07186e-09 2.21245e-12
threshold=60.411091555064353 1.0000000180025095e-35 7.0720000000000001 6.2185000000000015 3.0381487737564501 1.5000000000000002 1.0000000180025095e-35 8.6015000000000015 7.7390059183195685 7.394000000000001 852.43320787944765 55.655136049366057 54.060146738192522 2.5592128327655463 7.8660000000000005
decision_type=2 2 2 2 8 2 2 2 10 2 2 2 2 10 2
left_child=1 4 3 5 6 -2 7 -1 10 -8 -7 12 13 14 -11
right_child=2 -3 -4 -5 -6 8 9 -9 -10 11 -12 -13 -14 -15 -16
leaf_value=0.10177372037998172 -0.10584235292331512 -0.1048094115050317 -0.0064906484768222769 -0.12160922143098872 0.10703377665323673 -0.10417582731593514 0.10216325450201341 0.10282526395356294 -0.10483275071213677 0.10182651444799147 -0.10447849220195088 0.10189690660023659 0.10183667837718624 0.10181904642415066 0.10182677814966988
leaf_weight=0.4070278145372892 0.95155102387070467 0.7293856032192706 4.226564709097147 0.90183604508638371 0.39858368411660183 1.4619558937847621 0.74827903136610974 0.60495897196233273 0.87609233334660519 0.35231473296880755 1.3128250315785406 0.54542251117527474 0.40712657198309887 0.38599688559770573 3.2769771032035351
leaf_count=25 20 17 34 14 11 38 37 24 20 20 32 30 23 22 186
internal_value=0 0.0830173 -0.0636251 -0.107497 0.102241 -0.104732 0.101957 0.102402 -0.104442 0.101878 -0.104319 0.101835 0.101827 0.101826 0.101827
internal_weight=0 7.85607 9.73083 5.50426 7.12669 4.60242 6.7281 1.01199 3.65087 5.71612 2.77478 4.96784 4.42242 4.01529 3.62929
internal_count=553 395 158 124 378 110 367 49 90 318 70 281 251 228 206
is_linear=0
shrinkage=0.1


Tree=29
num_leaves=18
num_cat=0
split_feature=3 6 1 1 2 8 3 2 4 1 3 1 1 3 2 3 3
split_gain=8.28486 2.67131 2.26841 0.0169359 0.000719165 0.000118013 2.91353e-05 1.28443e-05 7.07236e-06 9.40835e-06 4.63134e-06 3.80561e-06 1.044e-07 2.24553e-09 1.15387e-09 3.9968e-15 4.44089e-16
threshold=61.915226626755931 1.0000000180025095e-35 7.0720000000000001 6.2185000000000015 3.0381487737564501 1.5000000000000002 58.557504519615442 7.7390059183195685 1.0000000180025095e-35 8.6785000000000014 852.43320787944765 7.394000000000001 7.7415000000000012 55.493220705255858 2.5382677889112393 53.805184147103752 52.220682045494335
decision_type=2 2 2 2 10 2 2 10 2 2 2 2 2 2 10 2 2
left_child=1 4 3 5 6 -2 8 10 9 -1 -7 -10 -13 14 15 16 -14
right_child=2 -3 -4 -5 -6 7 -8 -9 11 -11 -12 12 13 -15 -16 -17 -18
leaf_value=0.10161084135636843 -0.10533261034853686 -0.10428861392835748 -0.0069231174014994512 -0.119942215165669 0.10636636994217515 -0.103762705187111 0.10268682401852169 -0.1043519146619013 0.10191587159271419 0.10228942160448165 -0.10403419995656732 0.10170732652595034 0.10164991280511049 0.1016406045033857 0.101643611410212 0.10164990046061517 0.10164991269957523
leaf_weight=0.35542561393231409 0.83383677527308275 0.69451456144452084 4.175681933760643 0.82678021863102902 0.36280102282762516 1.3278305567801005 0.33809528779238451 0.79618744552135456 0.63155719265341748 0.48059476912021637 1.1927074491977689 0.32834815606474865 2.7145414575934423 0.31757524423301209 0.31815653108060349 0.33532311022281636 0.31935781240463246
leaf_count=24 19 18 33 14 11 38 16 20 35 22 32 20 170 20 20 21 20
internal_value=0 0.0821273 -0.0612748 -0.106873 0.10204 -0.104269 0.101784 -0.104002 0.101732 0.102001 -0.103891 0.101687 0.101653 0.101649 0.101649 0.10165 0.10165
internal_weight=0 7.19629 9.15302 4.97734 6.50178 4.15056 6.13898 3.31673 5.80088 0.83602 2.52054 4.96486 4.3333 4.00495 3.68738 3.36922 3.0339
internal_count=553 397 156 123 379 109 368 90 352 46 70 306 271 251 231 211 190
is_linear=0
shrinkage=0.1


Tree=30
num_leaves=19
num_cat=0
split_feature=9 2 1 7 1 1 3 3 2 1 3 1 3 1 2 1 3 3
split_gain=7.57083 1.92189 1.32984 2.23705 2.46734 0.432012 0.0696034 0.0279249 6.86376e-06 6.00676e-06 3.49455e-06 9.05071e-07 4.51227e-08 3.78124e-09 9.26877e-10 2.13163e-14 1.77636e-15 8.88178e-16
threshold=1.0000000180025095e-35 3.3313730536956694 6.7255000000000011 2.5000000000000004 8.5900000000000016 7.0720000000000001 214.14809251923026 65.041774620082833 7.7390059183195685 5.6255000000000015 852.43320787944765 7.5315000000000012 56.960463769854194 4.0065000000000008 2.5592128327655463 7.9355000000000011 54.134090996831397 52.69244247984934
decision_type=2 8 2 2 2 2 2 2 10 2 2 2 2 2 10 2 2 2
left_child=1 5 7 -4 -5 -1 11 -2 9 10 13 -7 14 -9 15 -13 17 -17
right_child=2 -3 3 4 -6 6 -8 8 -10 -11 -12 12 -14 -15 -16 16 -18 -19
leaf_value=0.025278843413714114 -0.081349843973504546 -0.078921532318356399 -0.11395972360722516 0.16478934342231641 -0.041318017405158364 0.10164238960588637 0.13009376864885572 -0.10338782236367255 -0.10392079631258828 -0.10384385271808844 -0.10364052654273165 0.10149042179645414 0.10152965760980751 -0.10339860633319327 0.10148478647487645 0.10149044882932463 0.10149045659706331 0.10149044393445172
leaf_weight=0.73285503778606731 0.66239395923912336 0.68741579353809346 1.5590149015188219 0.95490276813507113 1.4826347101479767 0.45287667028605927 1.0574780404567716 0.6655341461300861 0.72325646132230748 0.65858615189790715 1.0167628116905687 0.31833257339894894 0.31078085489571083 0.63572816550731659 0.31714626308530558 2.329652965068818 0.30387031845748413 0.34727685153484333
leaf_count=27 21 9 15 30 35 29 6 21 20 19 30 22 21 20 22 161 21 24
internal_value=0 0.0796837 -0.062081 -0.0204092 0.0394243 0.0973536 0.107068 -0.100259 -0.103644 -0.103577 -0.103502 0.101509 0.101493 -0.103393 0.10149 0.10149 0.10149 0.10149
internal_weight=0 6.85769 8.35881 3.99655 2.43754 6.17027 5.43741 4.36226 3.69987 2.97661 2.31803 4.37994 3.92706 1.30126 3.61628 3.29913 2.9808 2.67693
internal_count=553 342 211 80 65 333 306 131 110 90 71 300 271 41 250 228 206 185
is_linear=0
shrinkage=0.1


Tree=31
num_leaves=19
num_cat=0
split_feature=3 6 1 1 2 8 4 1 2 1 3 1 2 3 2 1 3 1
split_gain=6.74093 2.15778 2.07706 0.0168363 0.000768489 7.24417e-05 2.66039e-05 2.04536e-05 7.29637e-06 5.89752e-06 2.85364e-06 6.94245e-07 6.56977e-08 3.33006e-08 6.81995e-10 1.02141e-14 4.88498e-15 4.44089e-16
threshold=60.411091555064353 1.0000000180025095e-35 7.0720000000000001 6.2515000000000009 3.0738646602798041 1.5000000000000002 1.0000000180025095e-35 8.6015000000000015 7.7390059183195685 7.1155000000000008 852.43320787944765 7.5315000000000012 5.846545624419619 56.960463769854194 2.5592128327655463 7.9090000000000007 54.134090996831397 10.191000000000001
decision_type=2 2 2 2 10 2 2 2 10 2 2 2 8 2 10 2 2 2
left_child=1 4 3 5 6 -2 7 -1 10 -8 12 -11 -7 14 15 -13 17 -17
right_child=2 -3 -4 -5 -6 8 9 -9 -10 11 -12 13 -14 -15 -16 16 -18 -19
leaf_value=0.1013572463702615 -0.1043645051989298 -0.10366313958268997 -0.005583758998607611 -0.12056977099031448 0.10671899209108474 -0.10302132942522219 0.10178892727720659 0.10240035511954307 -0.10353389465642059 0.10148836028085945 -0.10327763590251347 0.10134657847355 -0.10306920393450857 0.1013819860160637 0.10134149698493866 0.10134659788845479 0.10134661207575316 0.10134659814493703
leaf_weight=0.29511150717735368 0.72517582215368603 0.56444972194731224 3.9980583675205708 0.68911271356046189 0.29821825306862582 0.56884750910103377 0.3541703950613736 0.51781517826020718 0.65675036050379265 0.39730227552354369 0.98327787593007077 0.26220628432929638 0.57779412716627132 0.28159490134567011 0.28735090605914582 2.1894595362246045 0.27532362286001433 0.26221061497926701
leaf_count=25 20 17 34 12 9 20 21 24 20 28 32 20 20 21 22 167 21 20
internal_value=0 0.082409 -0.0571771 -0.106278 0.101784 -0.103474 0.101497 0.102022 -0.103242 0.101398 -0.103153 0.101363 -0.103045 0.101349 0.101346 0.101347 0.101347 0.101347
internal_weight=0 5.98521 8.19902 4.20096 5.42076 3.51185 5.12255 0.812927 2.78667 4.30962 2.12992 3.95545 1.14664 3.55815 3.27655 2.9892 2.72699 2.45167
internal_count=553 395 158 124 378 112 369 49 92 320 72 299 40 271 250 228 208 187
is_linear=0
shrinkage=0.1


Tree=32
num_leaves=22
num_cat=0
split_feature=9 2 9 2 2 1 1 1 3 1 3 1 1 2 3 2 1 3 2 1 1
split_gain=6.10856 1.6397 1.15134 2.23009 0.806428 0.574322 0.430289 0.662871 0.0497691 0.0100088 0.00407884 3.43548e-06 4.93478e-07 5.61018e-08 2.45862e-08 5.02326e-10 6.66134e-15 5.77316e-15 8.88178e-16 4.44089e-16 2.22045e-16
threshold=1.0000000180025095e-35 4.034706452111771 1.5000000000000002 2.9844674661787001 7.7390059183195685 7.0720000000000001 9.2285000000000021 7.9570000000000016 214.14809251923026 7.394000000000001 852.43320787944765 5.5405000000000006 7.5315000000000012 3.5501405056101607 56.960463769854194 2.5592128327655463 7.9090000000000007 54.134090996831397 2.3414219877366906 9.1430000000000025 10.191000000000001
decision_type=2 8 2 8 10 2 2 2 2 2 2 2 2 10 2 10 2 2 10 2 2
left_child=1 5 4 6 9 -1 7 -4 12 11 -5 13 -7 -2 15 16 -14 18 19 -18 -21
right_child=2 -3 3 10 -6 8 -8 -9 -10 -11 -12 -13 14 -15 -16 -17 17 -19 -20 20 -22
leaf_value=0.017575739764225627 -0.10282380633275456 -0.11088025782217092 0.21576221409237198 -0.09163241567224599 -0.0056749869250492628 0.10134063249779933 0.0015698610504318042 0.043141609332352018 0.1265902954880018 -0.11314820625325049 -0.10296439981044199 -0.10310250318916268 0.10121679390201165 -0.10278053561072319 0.10124875675143681 0.10121221049146896 0.1012168086164847 0.10121682572475386 0.10121681494861237 0.10121680861366522 0.1012168094094833
leaf_weight=0.85875282157212485 0.5334232244640591 0.42700812965631474 0.43045336753129981 0.56408457271754719 0.95345709845423687 0.37182669993490014 0.39876521378755569 0.46037437953054905 0.98623469471931446 2.075526587665081 0.72700180858373642 0.54031326808035363 0.23754278942942741 0.68364726193249226 0.25511582288891066 0.26032107602804888 0.98581916559487648 0.24942630250006903 0.24942437838762987 0.74827243853360415 0.23754672706127167
leaf_count=30 20 6 19 19 24 29 14 22 6 22 26 19 20 26 21 22 83 21 21 63 20
internal_value=0 0.077813 -0.0589457 -0.00510752 -0.0879738 0.0926235 0.0879059 0.126553 0.10669 -0.108446 -0.0980134 -0.102893 0.101232 -0.1028 0.101219 0.101216 0.101217 0.101217 0.101217 0.101217 0.101217
internal_weight=0 5.86729 7.36705 2.58068 4.78637 5.44028 1.28959 0.890828 4.58153 3.83291 1.29109 1.75738 3.5953 1.21707 3.22347 2.96835 2.70803 2.47049 2.22106 1.97164 0.985819
internal_count=553 342 211 100 111 336 55 41 306 87 45 65 300 46 271 250 228 208 187 166 83
is_linear=0
shrinkage=0.1


Tree=33
num_leaves=23
num_cat=0
split_feature=3 1 6 1 2 8 4 1 2 1 3 1 2 3 2 1 3 3 1 1 1 1
split_gain=5.44416 1.90177 1.79618 0.0149836 0.000564359 4.35518e-05 2.04842e-05 1.78376e-05 1.7005e-05 6.40779e-06 1.205e-06 3.78826e-07 1.07346e-07 1.81494e-08 3.71106e-10 8.88178e-15 2.66454e-15 8.88178e-16 2.22045e-16 2.22045e-16 1.11022e-16 1.11022e-16
threshold=60.411091555064353 7.0720000000000001 1.0000000180025095e-35 6.3355000000000006 3.0738646602798041 1.5000000000000002 1.0000000180025095e-35 8.6015000000000015 8.2571577455597396 7.1155000000000008 852.43320787944765 7.5315000000000012 4.3881459902724496 56.960463769854194 2.5592128327655463 7.9090000000000007 54.134090996831397 52.69244247984934 9.8890000000000011 8.9725000000000019 8.693500000000002 8.4430000000000032
decision_type=2 2 2 2 10 2 2 2 10 2 2 2 10 2 10 2 2 2 2 2 2 2
left_child=2 3 4 5 6 -2 7 -1 10 -8 12 -11 -7 14 15 -13 17 18 19 20 21 -17
right_child=1 -3 -4 -5 -6 8 9 -9 -10 11 -12 13 -14 -15 -16 16 -18 -19 -20 -21 -22 -23
leaf_value=0.10102844399238636 -0.10364880685607039 -0.0036572529488420207 -0.10306777665140528 -0.12060588142538933 0.10595938305131058 -0.10247298532723691 0.10158568268709618 0.10211059664345062 -0.10322645582814727 0.10121526493616595 -0.10266683093947122 0.10109966019924994 -0.10253786173249467 0.10112851919801971 0.1010955264390683 0.10109968196849928 0.10109969125375121 0.10109967777154433 0.10109968083304187 0.10109968083304194 0.10109968083304176 0.10109968083304166
leaf_weight=0.22803595196455706 0.64003109373152334 3.7451276518404484 0.47409725375473488 0.5703328065574168 0.27083482593297947 0.54115013219416164 0.31465132813900742 0.45875603891909122 0.51412099972367276 0.32611791323870454 0.80958539620041836 0.21517395973205689 0.48239244148135185 0.23109883442521084 0.23580629006028164 0.37656113971024818 0.22593843471258868 0.26897151488810767 0.33352532517164935 0.53794407285749912 0.27973091788589954 0.21517762914299965
leaf_count=25 21 34 17 11 9 23 21 24 17 28 32 20 20 21 22 35 21 25 31 50 26 20
internal_value=0 -0.0533945 0.0821038 -0.105753 0.101533 -0.102918 0.101251 0.101751 -0.102718 0.101155 -0.102576 0.101113 -0.102504 0.101102 0.101099 0.1011 0.1011 0.1011 0.1011 0.1011 0.1011 0.1011
internal_weight=0 7.30274 4.99242 3.55761 4.51832 2.98728 4.24749 0.686792 2.34725 3.5607 1.83313 3.24605 1.02354 2.91993 2.68883 2.45302 2.23785 2.01191 1.74294 1.40941 0.87147 0.591739
internal_count=553 158 395 124 378 113 369 49 92 320 75 299 43 271 250 228 208 187 162 131 81 55
is_linear=0
shrinkage=0.1


Tree=34
num_leaves=16
num_cat=0
split_feature=9 2 1 7 1 1 3 1 2 3 1 3 3 2 1
split_gain=4.94403 1.39263 1.01799 1.78287 2.07371 0.543628 0.0354624 0.0251664 1.38534e-05 7.83846e-07 2.69311e-07 8.07883e-08 1.34053e-08 2.74607e-10 5.77316e-15
threshold=1.0000000180025095e-35 4.034706452111771 6.7255000000000011 2.5000000000000004 8.5900000000000016 7.0720000000000001 214.14809251923026 5.9255000000000004 8.2571577455597396 852.43320787944765 7.5315000000000012 447.01087335424114 56.960463769854194 2.5592128327655463 7.9355000000000011
decision_type=2 8 2 2 2 2 2 2 10 2 2 2 2 8 2
left_child=1 5 7 -4 -5 -1 10 8 9 11 -7 -2 13 14 -12
right_child=2 -3 3 4 -6 6 -8 -9 -10 -11 12 -13 -14 -15 -16
leaf_value=0.015051581086116338 -0.10230130001762505 -0.10974704729314207 -0.11118843094640425 0.15747046500623385 -0.043251567167528877 0.10109491657118719 0.1235305465569462 -0.07711927489801372 -0.1029022340435481 -0.10240662218706108 0.100993922599732 -0.10225148913007896 0.10101998100115346 0.10099018439527746 0.1009939402223089
leaf_weight=0.78469180967658747 0.68045058101415745 0.37355609610676754 1.3059389814734461 0.85769056715071235 1.2871030857786534 0.30512350238859731 0.91601566970348347 0.46357835549861182 0.51992958225309838 0.73430969566106785 0.21438025962561491 0.62440286763012409 0.2093201084062456 0.21357758436352003 2.0074123544618487
leaf_count=30 31 6 15 30 35 29 6 20 19 32 22 29 21 22 206
internal_value=0 0.0760177 -0.0561871 -0.0190724 0.037016 0.0909394 0.106343 -0.0985579 -0.102441 -0.102324 0.101006 -0.102277 0.100996 0.100994 0.100994
internal_weight=0 5.02408 6.4734 3.45073 2.14479 4.65052 3.86583 3.02267 2.55909 2.03916 2.94981 1.30485 2.64469 2.43537 2.22179
internal_count=553 342 211 80 65 336 306 131 111 92 300 60 271 250 228
is_linear=0
shrinkage=0.1


Tree=35
num_leaves=18
num_cat=0
split_feature=3 1 13 1 2 8 4 1 2 1 3 1 2 3 2 3 2
split_gain=4.4775 1.68042 1.49942 0.0138432 0.000485543 3.17538e-05 2.53026e-05 1.53609e-05 9.01101e-06 7.19625e-06 5.55797e-07 1.99089e-07 5.26191e-08 9.91036e-09 2.01683e-10 3.55271e-15 1.55431e-15
threshold=60.411091555064353 7.0720000000000001 1.0000000180025095e-35 6.4560000000000004 3.120325490390325 1.5000000000000002 1.0000000180025095e-35 8.6015000000000015 8.2571577455597396 7.0720000000000001 852.43320787944765 7.5315000000000012 4.3881459902724496 56.960463769854194 2.5592128327655463 54.189466467274272 2.3414219877366906
decision_type=2 2 2 2 8 2 2 2 10 2 2 2 10 2 10 2 10
left_child=2 3 -1 5 6 -2 7 -4 10 -8 12 -11 -7 14 15 16 -13
right_child=1 -3 4 -5 -6 8 9 -9 -10 11 -12 13 -14 -15 -16 -17 -18
leaf_value=-0.10258075631477906 -0.10308400575842809 -0.0037019077849753967 0.10090039425751161 -0.12087487135202282 0.10608332569670659 -0.10202787135562968 0.10141818723402252 0.10199044962384665 -0.10262548772815999 0.10098968143529304 -0.1021721677097997 0.10089845063037953 -0.10207720239489869 0.10092198295370447 0.10089507228011557 0.10089846712534159 0.10089845896259531
leaf_weight=0.39827510528266419 0.53649117238819655 3.5522617660462856 0.18420052016154009 0.48376507498323906 0.20525994617491949 0.44770184345543362 0.31016440223902497 0.43355522304773331 0.42326902225613605 0.27636021934449706 0.68662715330719948 1.6150274798274051 0.41819742880761623 0.18957522511482228 0.19342590495944012 0.17650716751813877 0.22063215449452389
leaf_count=17 21 34 25 9 6 23 23 24 17 29 33 183 21 21 22 20 25
internal_value=0 -0.0502248 0.0820279 -0.105385 0.101353 -0.102402 0.101083 0.101665 -0.102216 0.100962 -0.102105 0.100909 -0.102052 0.1009 0.100898 0.100898 0.100898
internal_weight=0 6.54831 4.20298 2.99605 3.80471 2.51229 3.59945 0.617756 1.9758 2.98169 1.55253 2.67153 0.865899 2.39517 2.20559 2.01217 1.83566
internal_count=553 158 395 124 378 115 372 49 94 323 77 300 44 271 250 228 208
is_linear=0
shrinkage=0.1


Tree=36
num_leaves=19
num_cat=0
split_feature=9 2 9 2 2 1 1 1 3 1 3 1 1 2 3 2 1 3
split_gain=3.99586 1.18978 0.904534 1.54961 1.05739 0.380846 0.314306 0.54055 0.0252915 0.006382 0.00472953 1.13678e-06 1.4716e-07 6.93981e-08 7.31763e-09 1.49812e-10 4.21885e-15 6.66134e-16
threshold=1.0000000180025095e-35 3.3313730536956694 1.5000000000000002 2.9844674661787001 8.5332085332085352 7.0720000000000001 9.2285000000000021 8.5900000000000016 214.14809251923026 7.394000000000001 712.5310482857825 5.5405000000000006 7.5315000000000012 7.7390059183195685 56.960463769854194 2.5592128327655463 7.9090000000000007 54.134090996831397
decision_type=2 8 2 8 10 2 2 2 2 2 2 2 2 8 2 10 2 2
left_child=1 5 4 6 9 -1 7 -4 12 11 -5 13 -7 -2 15 16 -14 -18
right_child=2 -3 3 10 -6 8 -8 -9 -10 -11 -12 -13 14 -15 -16 -17 17 -19
leaf_value=0.016523621858287846 -0.10184747292785151 -0.072784604013965568 0.19156754705327175 -0.087430696929441373 0.029545328208992416 0.10089464854462699 0.0012202958221752883 0.021843813168367941 0.12088639524525174 -0.11118326540384821 -0.10197092758662968 -0.10207792082932848 0.10081221624394182 -0.10190311210997104 0.10083347780114749 0.10080916982571458 0.10081223257448668 0.10081223847519527
leaf_weight=0.5562723716720942 0.48035867325961656 0.48806805908679951 0.42438224796205781 0.39745252020657051 0.69261072948575009 0.25028461776673872 0.34302918985486031 0.33639681711792946 0.84860450029373158 1.769880026578903 0.51173051632940769 0.38941658101975918 0.15983615815639529 0.42033920623362064 0.17167765926569689 0.17516054771840561 1.4944934360682962 0.16783227026462544
leaf_count=27 27 9 27 18 19 29 14 14 6 22 27 20 20 23 21 22 187 21
internal_value=0 0.0742469 -0.05302 0.00105985 -0.0820299 0.0930122 0.0806885 0.11652 0.106032 -0.107284 -0.0956146 -0.101935 0.100822 -0.101873 0.100814 0.100812 0.100812 0.100812
internal_weight=0 4.31223 5.7656 2.01299 3.75261 3.82416 1.10381 0.760779 3.26789 3.05999 0.909183 1.29011 2.41928 0.900698 2.169 1.99732 1.82216 1.66233
internal_count=553 342 211 100 111 333 55 41 306 92 45 70 300 50 271 250 228 208
is_linear=0
shrinkage=0.1


Tree=37
num_leaves=18
num_cat=0
split_feature=3 1 6 1 2 4 8 2 1 2 2 1 3 2 3 2 1
split_gain=3.64798 1.51743 1.25559 0.0121069 0.000447163 2.03169e-05 1.69156e-05 1.43853e-05 6.57023e-06 4.7593e-06 2.22098e-07 1.0884e-07 5.41021e-09 1.10271e-10 1.11022e-15 4.44089e-16 2.22045e-16
threshold=60.411091555064353 7.0720000000000001 1.0000000180025095e-35 6.5015000000000009 3.120325490390325 1.0000000180025095e-35 1.5000000000000002 8.5332085332085352 7.0720000000000001 1.9897193886449829 3.0381487737564501 7.5315000000000012 56.960463769854194 2.5592128327655463 54.134090996831397 2.2758108665611285 8.2250000000000032
decision_type=2 2 2 2 8 2 2 10 2 10 10 2 2 8 2 8 2
left_child=2 3 4 6 5 9 -2 10 -7 -1 -8 -10 13 14 15 16 -13
right_child=1 -3 -4 -5 -6 8 7 -9 11 -11 -12 12 -14 -15 -16 -17 -18
leaf_value=0.10186451253637133 -0.10258898698411241 -0.0024751552192471046 -0.1021891967154019 -0.12103565071260949 0.10588710706477336 0.10126050346722025 -0.10178811701300383 -0.10246787992308699 0.1008088192035469 0.10124697317654847 -0.10170659889645867 0.10073433146808418 0.10075353433081705 0.10073157535483859 0.10073434326395987 0.10073433818577204 0.10073433488786461
leaf_weight=0.20332940295338753 0.45011168625205833 3.3355409000068903 0.33539600204676379 0.39790806733071793 0.19304753281176079 0.27651737164706025 0.71798219531774499 0.35256621986627568 0.22664989577606354 0.32313174521550536 0.62530301976948977 0.1809163377620272 0.15545735228806723 0.15860769338905822 0.15920860366895806 0.30394179327413451 1.0059035513550041
leaf_count=14 21 34 17 8 6 23 42 15 29 35 38 25 21 22 22 42 139
internal_value=0 -0.0468414 0.0818523 -0.105015 0.101222 0.100922 -0.102044 -0.101899 0.100801 0.101485 -0.10175 0.100743 0.100736 0.100734 0.100734 0.100734 0.100734
internal_weight=0 5.87941 3.52211 2.54387 3.18671 2.99366 2.14596 1.69585 2.4672 0.526461 1.34329 2.19069 1.96404 1.80858 1.64997 1.49076 1.18682
internal_count=553 158 395 124 378 372 116 95 323 49 80 300 271 250 228 206 164
is_linear=0
shrinkage=0.1


Tree=38
num_leaves=25
num_cat=0
split_feature=9 2 2 9 2 1 1 1 3 3 1 2 1 1 2 3 2 1 1 1 1 2 1 1
split_gain=3.23613 1.04805 1.00438 1.30745 1.23055 0.457884 0.274161 0.515159 0.017985 0.00559128 0.00489645 3.82433e-06 4.39061e-07 8.04839e-08 8.96497e-09 3.99934e-09 8.18177e-11 3.33067e-15 4.44089e-16 1.11022e-16 1.11022e-16 2.22045e-16 1.11022e-16 1.66533e-16
threshold=1.0000000180025095e-35 4.034706452111771 10.800228931654418 1.5000000000000002 2.9844674661787001 7.0720000000000001 9.2285000000000021 7.9570000000000016 214.14809251923026 712.5310482857825 7.394000000000001 7.0880418032938453 5.2780000000000014 7.5315000000000012 3.5501405056101607 56.960463769854194 2.5592128327655463 7.9355000000000011 8.7500000000000018 8.5280000000000005 10.191000000000001 2.1595403771414605 9.7995000000000001 9.1430000000000025
decision_type=2 8 10 2 8 2 2 2 2 2 2 10 2 2 10 2 10 2 2 2 2 10 2 2
left_child=1 5 3 10 6 -1 7 -5 13 -6 11 12 14 -7 -2 16 17 -15 19 -19 21 22 23 -20
right_child=2 -3 -4 4 9 8 -8 -9 -10 -11 -12 -13 -14 15 -16 -17 -18 18 20 -21 -22 -23 -24 -25
leaf_value=0.012717503230153117 -0.10152804468459942 -0.10822608031472097 0.087556950115391358 0.1955145669574414 -0.084294816098232347 0.10073128133971454 -0.002299873762514496 0.024180988882191258 0.11856476509705978 -0.10160761412270219 -0.11001797239987487 -0.10195713324487887 -0.1016622057342306 0.1006639579894987 -0.10150333890602024 0.10068131872217988 0.1006614733504335 0.10066397343763465 0.1006639767178073 0.10066397151898948 0.10066397235948497 0.10066397222100217 0.10066397722206417 0.10066397399263619
leaf_weight=0.65426633693277914 0.29605305939912818 0.29586959816515435 0.47928141988813866 0.34891913272440389 0.33534866571426403 0.20523113803938065 0.32034918107092381 0.35307190474122763 0.78372719883918751 0.42038915306329727 1.609645292162895 0.34786056075245142 0.31439345888793468 0.14415043406188477 0.29148762486875057 0.14075939450412978 0.14360903901979316 0.34072487987577893 0.14415324106812477 0.15725726587697864 0.14415257424116135 0.14415288483723998 0.15725829964503646 0.26209579920396209
leaf_count=30 20 6 10 19 18 29 14 22 6 27 22 19 20 22 20 21 22 52 22 24 22 22 24 40
internal_value=0 0.0723379 -0.0502584 -0.0645014 0.00283269 0.0879518 0.0743585 0.109341 0.105739 -0.0939253 -0.106372 -0.101675 -0.101567 0.100672 -0.101516 0.100665 0.100664 0.100664 0.100664 0.100664 0.100664 0.100664 0.100664 0.100664
internal_weight=0 3.71741 5.1168 4.63752 1.77808 3.42154 1.02234 0.701991 2.76727 0.755738 2.85944 1.24979 0.901934 1.98354 0.587541 1.77831 1.63755 1.49395 1.34979 0.497982 0.851813 0.70766 0.563507 0.406249
internal_count=553 342 211 201 100 336 55 41 306 45 101 79 60 300 40 271 250 228 206 76 130 108 86 62
is_linear=0
shrinkage=0.1


Tree=39
num_leaves=20
num_cat=0
split_feature=3 1 6 1 2 4 8 2 1 2 2 1 3 2 3 1 1 1 1
split_gain=2.98488 1.34696 1.05726 0.00967357 0.000326066 1.62613e-05 1.20363e-05 1.42987e-05 5.81559e-06 3.44374e-06 1.01754e-07 5.95451e-08 2.95919e-09 6.02052e-11 1.33227e-15 3.33067e-16 2.22045e-16 1.11022e-16 1.11022e-16
threshold=60.411091555064353 7.0720000000000001 1.0000000180025095e-35 6.5015000000000009 3.120325490390325 1.0000000180025095e-35 1.5000000000000002 8.5332085332085352 7.0720000000000001 1.9897193886449829 3.0381487737564501 7.5315000000000012 56.960463769854194 2.5592128327655463 52.478397532536619 9.0480000000000018 7.9570000000000016 9.4490000000000016 8.322000000000001
decision_type=2 2 2 2 10 2 2 10 2 10 10 2 2 10 2 2 2 2 2
left_child=2 3 4 6 5 9 -2 10 -7 -1 -8 -10 13 14 16 -16 -13 18 -18
right_child=1 -3 -4 -5 -6 8 7 -9 11 -11 -12 12 -14 -15 15 -17 17 -19 -20
leaf_value=0.10166904100762174 -0.1022344589297961 -0.0019791427818931103 -0.10188160817298286 -0.119857559080985 0.1052385070227734 0.10112479112515356 -0.10146084588023584 -0.10219803626328379 0.10066122640187387 0.10110775911179466 -0.10140005344538564 0.10060037655009413 0.10061606409868062 0.10059812931509036 0.10060038452268059 0.10060039145917959 0.10060038377626442 0.10060038041544878 0.10060038087455184
leaf_weight=0.18103742017410818 0.3808234874159101 3.1371753104031086 0.28386396728456009 0.35217601247131813 0.1764660128392278 0.2473931219428781 0.59035320114344336 0.31301243789494027 0.18582347780466069 0.27590699307620525 0.5159641420468688 0.11864658305421449 0.12744276877492655 0.13002049084752787 0.13051261845976103 0.15424357634037733 0.12458071298897266 0.31441779248416424 0.51018735906109214
leaf_count=14 21 34 17 8 6 23 42 15 29 35 38 20 21 22 22 26 21 53 86
internal_value=0 -0.0437771 0.0816232 -0.104701 0.101084 0.100791 -0.101735 -0.101601 0.10067 0.10133 -0.101432 0.100608 0.100601 0.1006 0.1006 0.1006 0.1006 0.1006 0.1006
internal_weight=0 5.2895 2.96054 2.15233 2.67668 2.50021 1.80015 1.41933 2.04327 0.456944 1.10632 1.79588 1.61005 1.48261 1.35259 0.284756 1.06783 0.949186 0.634768
internal_count=553 158 395 124 378 372 116 95 323 49 80 300 271 250 228 48 180 160 107
is_linear=0
shrinkage=0.1


Tree=40
num_leaves=19
num_cat=0
split_feature=3 1 6 1 2 4 8 2 1 2 2 1 3 2 1 2 3 1
split_gain=2.6435 1.26499 0.955514 0.00764721 0.000241829 1.20343e-05 8.94658e-06 1.0526e-05 4.29835e-06 2.54576e-06 6.6399e-08 4.40504e-08 2.18834e-09 4.45752e-11 8.88178e-16 4.44089e-16 4.44089e-16 1.11022e-16
threshold=60.411091555064353 7.0720000000000001 1.0000000180025095e-35 6.5475000000000003 3.120325490390325 1.0000000180025095e-35 1.5000000000000002 8.5332085332085352 7.0720000000000001 1.9897193886449829 3.0381487737564501 7.5315000000000012 56.960463769854194 2.5592128327655463 7.9090000000000007 2.3414219877366906 54.134090996831397 10.004500000000002
decision_type=2 2 2 2 8 2 2 10 2 10 10 2 2 10 2 10 2 2
left_child=2 3 4 6 5 9 -2 10 -7 -1 -8 -10 13 14 -13 16 17 -16
right_child=1 -3 -4 -5 -6 8 7 -9 11 -11 -12 12 -14 -15 15 -17 -18 -19
leaf_value=0.10150859478457804 -0.10201879157128797 -0.0017825813555761027 -0.10169994793145694 -0.1186900659601553 0.10473313842827994 0.10101665822679098 -0.10131995490080742 -0.10198456754925596 0.10059792334675891 0.10100159527635003 -0.10126875207510511 0.1005429158802657 0.10055709724401962 0.10054088692540236 0.10054292380897817 0.10054293087401563 0.10054292953305602 0.10054292376774113
leaf_weight=0.16405517468229036 0.3452747082337736 3.1349161928519607 0.25728617981076229 0.30993737839162339 0.16040424862876523 0.22407798003405344 0.53487866371870019 0.28378800489008416 0.16824045963585366 0.24990003323182464 0.48103174567222595 0.1074137408286332 0.11537916725501407 0.11771098198369134 0.73579662293195702 0.11815742682665586 0.10741635737940669 0.1557525503449142
leaf_count=14 21 34 17 7 6 23 42 15 29 35 39 20 21 22 137 22 20 29
internal_value=0 -0.0411504 0.0815347 -0.104281 0.100981 0.100715 -0.101566 -0.101446 0.100606 0.101203 -0.101296 0.100549 0.100544 0.100543 0.100543 0.100543 0.100543 0.100543
internal_weight=0 5.08983 2.68159 1.95491 2.4243 2.2639 1.64497 1.2997 1.84995 0.413955 1.01591 1.62587 1.45763 1.34225 1.22454 1.11712 0.998966 0.891549
internal_count=553 158 395 124 378 372 117 96 323 49 81 300 271 250 228 208 186 166
is_linear=0
shrinkage=0.1


Tree=41
num_leaves=20
num_cat=0
split_feature=9 2 9 2 2 1 1 3 1 1 2 1 1 2 3 2 2 3 1
split_gain=2.43017 0.947615 1.14805 0.888202 0.869249 0.397462 0.211885 0.0125101 0.00687306 0.00340526 1.5747e-06 1.43863e-07 3.25973e-08 3.78388e-09 1.61903e-09 3.29106e-11 8.88178e-16 4.44089e-16 1.11022e-16
threshold=1.0000000180025095e-35 10.800228931654418 1.5000000000000002 2.9844674661787001 4.034706452111771 7.0720000000000001 9.2075000000000014 214.14809251923026 4.6210000000000013 7.394000000000001 7.0880418032938453 5.2780000000000014 7.5315000000000012 3.5501405056101607 56.960463769854194 2.5592128327655463 2.3414219877366906 54.023141404994156 10.137500000000001
decision_type=2 10 2 8 8 2 2 2 2 2 10 2 2 10 2 10 10 2 2
left_child=4 2 9 6 5 -1 -4 12 -5 10 11 13 -7 -2 15 16 17 18 -14
right_child=1 -3 3 8 -6 7 -8 -9 -10 -11 -12 -13 14 -15 -16 -17 -18 -19 -20
leaf_value=0.010538949062984795 -0.10112674063659444 0.086598021021842886 0.10113743528011657 -0.10118148664938563 -0.1075528270711766 0.10054071318904451 -0.0011094745267029667 0.11655990207370788 -0.078851930905560558 -0.10898349376268029 -0.10144181594177815 -0.10121496460765758 0.1004909870690099 -0.1011081204278057 0.10050380141317497 0.10048914879164134 0.10049099546587059 0.10049099285357664 0.10049098729677429
leaf_weight=0.54734847368672568 0.22003357484936792 0.47537412494420994 0.61010372638702359 0.33466719835996639 0.25127076357603062 0.15231248131021891 0.30349490232765675 0.72302508354187001 0.23438439564779401 1.4578000567853449 0.25885320268571377 0.2319209473207593 0.74389500403776743 0.21653821412473917 0.10445193341001857 0.10656134877353896 0.12641369644552469 0.12641389481723309 0.1118275155313313
leaf_count=30 20 10 39 29 6 29 16 6 16 22 19 20 153 20 21 22 26 26 23
internal_value=0 -0.0466395 -0.0630152 0.00608628 0.070465 0.0867766 0.0671713 0.105788 -0.0919843 -0.10597 -0.101232 -0.101151 0.100497 -0.101118 0.100492 0.100491 0.100491 0.100491 0.100491
internal_weight=0 4.34317 3.8678 1.48265 2.99352 2.74225 0.913599 2.1949 0.569052 2.38515 0.927346 0.668493 1.47188 0.436572 1.31956 1.21511 1.10855 0.982136 0.855723
internal_count=553 211 201 100 342 336 55 306 45 101 79 60 300 40 271 250 228 202 176
is_linear=0
shrinkage=0.1


Tree=42
num_leaves=21
num_cat=0
split_feature=3 1 13 1 1 2 4 2 8 1 2 3 8 1 3 2 1 2 1 2
split_gain=2.15853 1.10891 0.837672 0.00598627 0.000263181 1.2401e-05 9.07557e-06 8.35965e-06 9.70972e-06 3.36275e-06 1.34213e-06 4.22898e-08 5.26879e-08 2.4118e-08 1.19727e-09 2.44218e-11 8.88178e-16 2.22045e-16 2.22045e-16 2.77556e-17
threshold=61.915226626755931 7.0720000000000001 1.0000000180025095e-35 6.5475000000000003 5.5405000000000006 3.0738646602798041 1.0000000180025095e-35 8.5332085332085352 1.5000000000000002 7.0720000000000001 1.9897193886449829 536.555793405891 2.5000000000000004 7.5315000000000012 56.960463769854194 2.5592128327655463 7.9850000000000012 2.2518638059423837 8.7500000000000018 2.0208334478025551
decision_type=2 2 2 2 2 10 2 10 2 2 10 2 2 2 2 8 2 10 2 10
left_child=2 3 -1 7 -4 6 10 8 -2 -8 -6 -10 -13 -11 15 16 -15 18 19 -18
right_child=1 -3 4 -5 5 -7 9 -9 11 13 -12 12 -14 14 -16 -17 17 -19 -20 -21
leaf_value=-0.10145878177102381 -0.10175893917279957 -0.0016425188819964175 0.10723994372702531 -0.117487441983255 0.10129727000347628 0.101710250326145 0.10091477001034413 -0.1018451078649477 -0.10109248309810946 0.1004890047742138 0.10090550962345113 -0.10107189503182304 -0.1010086985129872 0.10044404509821836 0.10045563232546635 0.10044238624419638 0.10044405021472901 0.10044405433046531 0.10044405345857262 0.10044405217143303
leaf_weight=0.22732222266495261 0.26267005782574393 2.9434213377535343 0.062953881919384336 0.27613811008632172 0.14269863767549362 0.10884641623124469 0.17576016718521725 0.27492221351712931 0.29450981039553881 0.13788534142076958 0.22586080874316394 0.31472063157707453 0.2271339101716876 0.12323585944250182 0.094555034767836221 0.096463303547352663 0.10563170677050948 0.14964554086327553 0.52816023351624608 0.096829179674386978
leaf_count=18 19 33 1 7 14 8 20 16 28 29 36 30 23 28 21 22 24 34 120 22
internal_value=0 -0.0384304 0.0806644 -0.104052 0.100874 0.100673 0.100612 -0.101352 -0.101229 0.100504 0.101057 -0.101062 -0.101045 0.100449 0.100445 0.100444 0.100444 0.100444 0.100444 0.100444
internal_weight=0 4.59352 2.27585 1.65009 2.04853 1.98557 1.87673 1.37396 1.09903 1.50817 0.368559 0.836364 0.541855 1.33241 1.19452 1.09997 1.0035 0.880267 0.730621 0.202461
internal_count=553 156 397 123 379 378 370 116 100 320 50 81 53 300 271 250 228 200 166 46
is_linear=0
shrinkage=0.1


Tree=43
num_leaves=20
num_cat=0
split_feature=9 2 9 2 2 1 1 3 1 1 2 1 1 2 3 2 3 1 1
split_gain=1.98106 0.844077 1.03317 0.747999 0.695058 0.36605 0.181381 0.00884149 0.00838309 0.00240894 8.65392e-07 7.22606e-08 1.78529e-08 2.12095e-09 8.86211e-10 1.80498e-11 4.44089e-16 1.11022e-16 1.11022e-16
threshold=1.0000000180025095e-35 10.800228931654418 1.5000000000000002 4.034706452111771 2.9844674661787001 7.0720000000000001 9.2075000000000014 214.14809251923026 4.8150000000000004 7.394000000000001 7.0880418032938453 5.2780000000000014 7.5315000000000012 3.5501405056101607 56.960463769854194 2.5592128327655463 54.189466467274272 8.4710000000000019 7.9355000000000011
decision_type=2 10 2 8 8 2 2 2 2 2 10 2 2 10 2 10 2 2 2
left_child=3 2 9 5 6 -1 -4 12 -6 10 11 13 -7 -2 15 16 17 18 -14
right_child=1 -3 4 -5 8 7 -8 -9 -10 -11 -12 -13 14 -15 -16 -17 -18 -19 -20
leaf_value=0.0091376600124771171 -0.10092034798178368 0.07918877414836395 0.092806532568036906 -0.1068890451716059 -0.10096529699753208 0.10044226264804434 -0.0047421664687606578 0.11476932656228392 -0.073843814988553566 -0.10806781633113338 -0.10117694408498275 -0.10098906006630444 0.10040160850449681 -0.10090495366669566 0.10041208438549815 0.10040010739085621 0.10040161916040878 0.10040161242768489 0.10040161241665978
leaf_weight=0.49930519564077336 0.18046325724572065 0.48717419244348992 0.57775309006683495 0.22165637463331211 0.28407134581357252 0.12481892574578513 0.28445968590676785 0.66484531760215748 0.19032152183353901 1.3250279165804384 0.21239784732460976 0.18963928241282701 0.083664667792618053 0.1775493249297142 0.085592149291187525 0.087318490957841277 0.079682254232466221 0.56175599899142981 0.18326799524948001
leaf_count=30 20 10 39 6 30 29 16 6 15 22 19 20 21 20 21 22 20 141 46
internal_value=0 -0.0439639 -0.0614982 0.068781 0.00713366 0.085209 0.0606234 0.10551 -0.0900844 -0.105494 -0.101006 -0.100939 0.100406 -0.100913 0.100402 0.100401 0.100402 0.100402 0.100402
internal_weight=0 3.90886 3.42168 2.59191 1.33661 2.37025 0.862213 1.87095 0.474393 2.08508 0.76005 0.547652 1.2061 0.358013 1.08128 0.995689 0.908371 0.828689 0.266933
internal_count=553 211 201 342 100 336 55 306 45 101 79 60 300 40 271 250 228 208 67
is_linear=0
shrinkage=0.1


Tree=44
num_leaves=18
num_cat=0
split_feature=3 1 13 1 1 1 2 8 4 1 1 3 8 1 3 2 1
split_gain=1.76934 0.985321 0.708842 0.00510045 0.000188589 1.10843e-05 1.06331e-05 7.13286e-06 6.19411e-06 3.05374e-06 1.03637e-06 8.58675e-08 2.24911e-08 1.32116e-08 6.55523e-10 1.33918e-11 3.33067e-16
threshold=61.915226626755931 7.0720000000000001 1.0000000180025095e-35 6.6875000000000009 5.5405000000000006 6.1430000000000007 9.2591887947976943 1.5000000000000002 1.0000000180025095e-35 7.0720000000000001 9.2075000000000014 583.02368683609495 2.5000000000000004 7.5315000000000012 56.960463769854194 2.5592128327655463 7.9850000000000012
decision_type=2 2 2 2 2 2 10 2 2 2 2 2 2 2 2 10 2
left_child=2 3 -1 6 -4 -6 7 -2 10 -10 -7 -9 -13 -11 15 16 -15
right_child=1 -3 4 -5 5 8 -8 11 9 13 -12 12 -14 14 -16 -17 -18
leaf_value=-0.10128362491491479 -0.10153565943609506 -0.001076835807537671 0.10644456513139039 -0.11749130341754202 0.10169289483610995 0.10076030516612794 -0.10181736483636708 -0.10092725120608192 0.10082913481755183 0.10040000455580447 0.10112064447099439 -0.10087768798284234 -0.1008306517570299 0.10036324630093799 0.10037271626182119 0.10036188737807863 0.10036325073424129
leaf_weight=0.19304572418332067 0.22083498723804929 2.779215969145298 0.056878298521041981 0.22899459116160858 0.086250999011099228 0.18172202608548071 0.21314672939479351 0.32038564747199416 0.16505154501646768 0.11298595299012937 0.14233087562024593 0.25001774821430445 0.17131847981363535 0.10097408597357571 0.077475810889154673 0.079037597868591547 0.72125211218371987
leaf_count=18 19 33 1 5 6 38 13 36 21 29 13 29 21 28 21 22 200
internal_value=0 -0.0355775 0.0804338 -0.103838 0.100782 0.100589 -0.101178 -0.101037 0.100529 0.100428 0.100919 -0.100888 -0.100859 0.100368 0.100364 0.100363 0.100363
internal_weight=0 4.18391 1.91701 1.4047 1.72396 1.66708 1.1757 0.962557 1.58083 1.25678 0.324053 0.741722 0.421336 1.09173 0.97874 0.901264 0.822226
internal_count=553 156 397 123 379 378 118 105 372 321 51 86 50 300 271 250 228
is_linear=0
shrinkage=0.1


Tree=45
num_leaves=21
num_cat=0
split_feature=9 2 9 2 2 3 3 1 1 3 1 3 2 1 1 2 3 2 2 3
split_gain=1.6167 0.753559 0.931551 0.645426 0.562502 0.717099 0.575223 0.335229 0.0287162 0.006234 0.00169914 1.04941e-06 4.7388e-07 3.79905e-08 9.78188e-09 1.18717e-09 4.85846e-10 9.85245e-12 2.22045e-16 2.22045e-16
threshold=1.0000000180025095e-35 10.800228931654418 1.5000000000000002 4.034706452111771 1.4149008665991749 917.61647404207304 437.90702836378676 7.0720000000000001 9.3200000000000021 214.14809251923026 7.394000000000001 53.023577773749388 7.0880418032938453 5.2780000000000014 7.5315000000000012 3.5501405056101607 56.960463769854194 2.5592128327655463 2.3476148852496421 53.893397155996126
decision_type=2 10 2 8 10 2 2 2 2 2 2 2 10 2 2 10 2 10 10 2
left_child=3 2 10 7 -4 6 8 -1 11 14 12 -6 13 15 -9 -2 17 18 19 -16
right_child=1 -3 4 -5 5 -7 -8 9 -10 -11 -12 -13 -14 -15 16 -17 -18 -19 -20 -21
leaf_value=0.0079680117640089278 -0.10075204897300341 0.07292883174093788 -0.10450867363809753 -0.10629473863772361 0.10063770289240073 0.19281007403297284 -0.1112223530692516 0.10036180195323691 0.041410730283977758 0.11318795869698335 -0.10725445097807183 0.10107190056454124 -0.10096123036622882 -0.1008069079636085 0.10032855873121636 -0.10073932834046061 0.10033712602420693 0.10032733119287798 0.10032856415222034 0.10032856333058725
leaf_weight=0.45520200766623098 0.14795485790819007 0.49662163667380799 0.32589932670816757 0.19590206537395705 0.10933280561584979 0.24965235590934753 0.28985300241038203 0.10227085510268785 0.127924176864326 0.61012587696313858 1.2041785065084694 0.11339604447130114 0.17420418793335557 0.1552591398358345 0.57775351637974381 0.14553029648959637 0.070126615697517991 0.071539556141942739 0.078339548548683524 0.088132123928517103
leaf_count=30 20 10 30 6 25 1 15 29 11 6 22 18 19 20 177 20 21 22 24 27
internal_value=0 -0.0412854 -0.0599242 0.0671325 0.00789407 0.0490463 -0.00698907 0.0836774 0.0791711 0.10524 -0.105061 0.100859 -0.100821 -0.100767 0.100333 -0.100746 0.100329 0.100328 0.100329 0.100329
internal_weight=0 3.53981 3.04318 2.24939 1.21606 0.890158 0.640506 2.05349 0.350653 1.59829 1.82713 0.222729 0.622948 0.448744 0.988162 0.293485 0.885891 0.815765 0.744225 0.665886
internal_count=553 211 201 342 100 70 69 336 54 306 101 43 79 60 300 40 271 250 228 204
is_linear=0
shrinkage=0.1


Tree=46
num_leaves=20
num_cat=0
split_feature=3 1 13 2 1 2 2 1 4 1 1 1 2 1 1 3 2 2 3
split_gain=1.4312 0.884859 0.586789 0.00484267 0.000136458 1.22776e-05 8.73961e-06 7.46136e-06 3.36145e-06 2.49562e-06 8.36764e-07 3.83549e-07 5.83206e-08 7.24126e-09 6.90791e-09 3.59288e-10 7.25431e-12 2.22045e-16 3.33067e-16
threshold=60.411091555064353 7.0720000000000001 1.0000000180025095e-35 2.777802932564708 5.5405000000000006 9.8687480851909957 4.034706452111771 6.1430000000000007 1.0000000180025095e-35 7.0720000000000001 9.2075000000000014 2.9600000000000004 6.2133418028115512 7.5315000000000012 3.1505000000000005 56.960463769854194 2.5592128327655463 2.3476148852496421 53.805184147103752
decision_type=2 2 2 8 2 10 8 2 2 2 2 2 10 2 2 2 10 10 2
left_child=2 3 -1 -2 -4 6 -5 -6 10 -10 -9 -8 14 -11 -13 16 17 18 -15
right_child=1 -3 4 5 7 -7 11 8 9 13 -12 12 -14 15 -16 -17 -18 -19 -20
leaf_value=-0.10119478097464318 -0.11951420836261158 0.00014088697786158934 0.10574784345615006 -0.10152553378772376 0.10146410887083984 -0.10187363044944198 -0.10089133328034348 0.10059772414949375 0.10074371847183572 0.10032725765260414 0.10095661084423263 -0.10071156290213744 -0.1007735622419927 0.10029719348980533 -0.10068316057999638 0.1003049381191099 0.10029608676584612 0.10029720013817417 0.10029719934814041
leaf_weight=0.16007770877331462 0.16548510547727358 2.6079977825284004 0.051399841904640309 0.19610053626820445 0.075891929678618797 0.16745634470134974 0.18025021580979228 0.1393696086015549 0.14828799152746797 0.092568737920373678 0.12169257272034883 0.18240175861865282 0.14657711423933506 0.5170193687081337 0.16140995547175407 0.063472511013969779 0.064750807825475931 0.070905593922361732 0.085677712690085173
leaf_count=17 3 34 1 19 6 10 22 37 21 29 13 26 20 175 24 21 22 24 29
internal_value=0 -0.0325545 0.0803778 -0.103631 0.100689 -0.10109 -0.100938 0.1005 0.100444 0.100364 0.100765 -0.100767 -0.100721 0.100301 -0.100698 0.100298 0.100297 0.100297 0.100297
internal_weight=0 3.80768 1.59111 1.19968 1.43104 1.0342 0.86674 1.37964 1.30374 1.04268 0.261062 0.670639 0.490389 0.894395 0.343812 0.801826 0.738353 0.673603 0.602697
internal_count=553 158 395 124 378 121 111 377 371 321 50 92 70 300 50 271 250 228 204
is_linear=0
shrinkage=0.1


Tree=47
num_leaves=22
num_cat=0
split_feature=9 2 9 2 2 3 3 1 3 3 1 2 1 1 2 3 2 1 1 1 1
split_gain=1.32778 0.68147 0.826974 0.558847 0.47678 0.586055 0.478431 0.304873 0.0286039 0.00437697 0.00119705 2.62016e-07 1.85151e-08 5.35884e-09 6.50531e-10 2.65882e-10 5.41844e-12 2.22045e-16 8.32667e-17 5.55112e-17 5.55112e-17
threshold=1.0000000180025095e-35 10.800228931654418 1.5000000000000002 4.034706452111771 1.4149008665991749 917.61647404207304 437.90702836378676 7.0720000000000001 52.478397532536619 214.14809251923026 7.394000000000001 7.0880418032938453 5.2780000000000014 7.5315000000000012 3.5501405056101607 56.960463769854194 2.5592128327655463 8.6785000000000014 7.9355000000000011 10.250000000000002 9.5235000000000021
decision_type=2 10 2 8 10 2 2 2 2 2 2 10 2 2 10 2 10 2 2 2 2
left_child=3 2 10 7 -4 6 8 -1 -6 13 11 12 14 -9 -2 16 17 18 -15 20 -19
right_child=1 -3 4 -5 5 -7 -8 9 -10 -11 -12 -13 -14 15 -16 -17 -18 19 -20 -21 -22
leaf_value=0.0070751099301945277 -0.10061469832850407 0.067483987897407213 -0.10430203082305299 -0.10576293431861528 0.036892847541875211 0.17652398114958434 -0.11057520040868805 0.10029602057914196 0.10081326307006684 0.11177976997028338 -0.10653482961539061 -0.10078545131996641 -0.10065674634167272 0.10026883283811949 -0.10060429695976419 0.10027583855104967 0.10026783065279764 0.10026883817161641 0.10026883703082171 0.10026883738648998 0.10026883871703103
leaf_weight=0.41450611734762755 0.12126392265781838 0.50419405847787846 0.27675095479935385 0.17356713488698017 0.11266058182809502 0.24557837843894958 0.25231235800310969 0.083784417482092755 0.1849139453843236 0.55859244614839554 1.0949067287147043 0.14284053724259138 0.12693610973656178 0.05882637994363904 0.11927022598683834 0.05744812311604619 0.058604624588042498 0.18450412410311401 0.18450386775657535 0.056153314420953393 0.12567683751694858
leaf_count=30 20 10 30 6 19 1 15 29 35 6 22 19 20 22 20 21 22 69 69 21 47
internal_value=0 -0.0391656 -0.0592491 0.0655289 0.00875145 0.048084 -0.00927707 0.0822071 0.0766132 0.104971 -0.104671 -0.100671 -0.100626 0.100272 -0.10061 0.100269 0.100269 0.100269 0.100269 0.100269 0.100269
internal_weight=0 3.18163 2.67743 1.95617 1.07222 0.795465 0.549887 1.7826 0.297575 1.36809 1.60522 0.510311 0.36747 0.809502 0.240534 0.725717 0.668269 0.609665 0.24333 0.366334 0.310181
internal_count=553 211 201 342 100 70 69 336 54 306 101 79 60 300 40 271 250 228 91 137 116
is_linear=0
shrinkage=0.1


Tree=48
num_leaves=21
num_cat=0
split_feature=9 3 2 3 9 2 1 2 3 1 2 2 2 1 3 2 2 3 1 1
split_gain=1.16954 0.618279 1.37587 0.670853 0.561429 0.494199 0.298805 0.0441762 0.00318793 0.00308192 2.71135e-05 1.24707e-05 2.82718e-08 3.969e-09 1.96816e-10 3.97293e-12 3.33067e-16 1.66533e-16 5.55112e-17 5.55112e-17
threshold=1.0000000180025095e-35 407.74011939899668 10.800228931654418 917.61647404207304 1.5000000000000002 4.034706452111771 7.0720000000000001 2.257591869386983 214.14809251923026 7.6840000000000002 3.8087823501929781 9.2591887947976943 5.3229751578040201 7.5315000000000012 56.960463769854194 2.5592128327655463 2.3414219877366906 53.893397155996126 9.7730000000000015 8.1540000000000017
decision_type=2 2 10 2 2 8 2 8 2 2 8 10 10 2 2 10 10 2 2 2
left_child=5 2 4 9 -2 6 -1 -6 13 10 -3 12 -12 -8 15 16 17 18 19 -15
right_child=1 3 -4 -5 7 -7 8 -9 -10 -11 11 -13 -14 14 -16 -17 -18 -19 -20 -21
leaf_value=0.0063779814522932415 -0.10391246722752995 -0.10243100415304701 0.21762767979296821 0.032244486310109767 0.10070924312088758 -0.10519704003118516 0.10026777526303397 0.019084380570264063 0.11053786938810602 -0.11051295237414649 -0.10056905660777327 -0.10163764129235807 -0.10062856531967934 0.10024318525055034 0.10024951677741799 0.10024227860196251 0.1002431908005974 0.10024318801141466 0.10024318299671937 0.10024318299671992
leaf_weight=0.41386705450713601 0.52643804764375113 0.14872454805299617 0.27067827992141247 0.46384755196049798 0.17900738446041942 0.15785177797079097 0.07583154668100156 0.10531240038108081 0.51082267612218857 0.75078925862908363 0.25848209718242288 0.16206606011837721 0.11551192915067077 0.058081747964024544 0.051994165405631065 0.05304048745892942 0.062922468176111579 0.065342660760506988 0.10890428675338626 0.2565300976857543
leaf_count=30 40 14 3 10 34 6 29 21 6 12 46 12 19 24 21 22 26 27 45 106
internal_value=0 -0.0379419 0.0224157 -0.0723065 -0.0427575 0.0638746 0.0799777 0.0704753 0.104474 -0.106088 -0.101236 -0.100905 -0.100587 0.100246 0.100244 0.100243 0.100243 0.100243 0.100243 0.100243
internal_weight=0 2.98086 1.08144 1.89942 0.810758 1.81519 1.65734 0.28432 1.24347 1.43557 0.684785 0.53606 0.373994 0.732647 0.656816 0.604822 0.551781 0.488859 0.423516 0.314612
internal_count=553 211 98 113 95 342 336 55 306 103 91 77 65 300 271 250 228 202 175 130
is_linear=0
shrinkage=0.1


Tree=49
num_leaves=18
num_cat=0
split_feature=3 1 13 1 1 2 2 2 4 1 1 1 2 3 1 3 2
split_gain=1.05572 0.734317 0.504367 0.00364526 9.73489e-05 1.29674e-05 5.47809e-06 4.85987e-06 1.40173e-06 2.18496e-06 3.03569e-07 1.61526e-07 2.1698e-08 6.56089e-09 2.93817e-09 1.45631e-10 2.95797e-12
threshold=61.915226626755931 7.0720000000000001 1.0000000180025095e-35 7.0320000000000009 5.5405000000000006 9.8687480851909957 3.120325490390325 4.034706452111771 1.0000000180025095e-35 7.0720000000000001 9.2075000000000014 2.9600000000000004 6.2133418028115512 852.43320787944765 7.5315000000000012 56.960463769854194 2.5592128327655463
decision_type=2 2 2 2 2 10 8 8 2 2 2 2 10 2 2 2 10
left_child=2 3 -1 5 -4 7 8 -2 10 -10 -6 -9 13 -13 -11 16 -16
right_child=1 -3 4 -5 6 -7 -8 11 9 14 -12 12 -14 -15 15 -17 -18
leaf_value=-0.10118144687812558 -0.1012149647956407 0.00094367241634419014 0.105101954809008 -0.11775968486342184 0.10048169261037024 -0.10175554631367692 0.10135526977054961 -0.1006655625361329 0.10065160167203061 0.10024223143107412 0.10072608194829531 -0.1004995479369457 -0.10057300806168751 -0.10053241629721102 0.10021999204615495 0.10022571725612249 0.10021917020772259
leaf_weight=0.13930878834798899 0.15268862806260619 2.2883022725582123 0.046186488121748082 0.15315726771950722 0.11246325215324715 0.14928364846855402 0.058341792318970076 0.12964828126132488 0.14464605925604701 0.068631816655397415 0.092739575076848269 0.098738871049135923 0.10908852051943541 0.15776653261855245 0.49938200088217854 0.04705687053501606 0.048003520583733916
leaf_count=18 20 33 1 2 37 10 5 21 23 29 13 20 20 30 228 21 22
internal_value=0 -0.0297429 0.0782391 -0.10363 0.100607 -0.100915 0.100413 -0.100722 0.100359 0.100299 0.100592 -0.10057 -0.100536 -0.10052 0.100223 0.10022 0.10022
internal_weight=0 3.23867 1.25676 0.950372 1.11745 0.797214 1.07126 0.647931 1.01292 0.80772 0.205203 0.495242 0.365594 0.256505 0.663074 0.594442 0.547386
internal_count=553 156 397 123 379 121 378 111 373 323 50 91 70 50 300 271 250
is_linear=0
shrinkage=0.1


Tree=50
num_leaves=20
num_cat=0
split_feature=9 7 3 3 2 2 9 1 3 1 3 2 2 1 1 3 2 3 1
split_gain=0.960273 0.590845 0.713355 1.12222 1.09542 0.428909 0.39022 0.27053 0.0375288 0.00305858 0.00223438 0.000298379 3.79987e-06 6.17869e-07 2.17591e-09 1.08024e-10 2.21267e-12 1.66533e-16 5.55112e-17
threshold=1.0000000180025095e-35 2.5000000000000004 917.61647404207304 407.74011939899668 10.800228931654418 4.034706452111771 1.5000000000000002 7.0720000000000001 52.292420429822762 7.6840000000000002 214.14809251923026 2.431543755828423 8.5332085332085352 5.4755000000000011 7.5315000000000012 56.960463769854194 2.5592128327655463 54.189466467274272 9.2970000000000024
decision_type=2 2 2 2 10 8 2 2 2 2 2 8 10 2 2 2 10 2 2
left_child=5 11 3 4 6 7 -3 -1 -8 12 14 -2 13 -5 -9 16 17 18 -16
right_child=1 2 -4 9 -6 -7 8 10 -10 -11 -12 -13 -14 -15 15 -17 -18 -19 -20
